=== Run information ===

Scheme:       weka.classifiers.trees.J48 -C 0.25 -M 2
Relation:     QueryResult-weka.filters.unsupervised.attribute.Discretize-F-B6-M-1.0-R1
Instances:    24248
Attributes:   14
              year_encuesta
              conf_ejercito
              conf_congreso
              conf_cientificos
              conf_television
              conf_prensa
              conf_gobierno_federal
              conf_educacion
              conf_religion_organizada
              conf_grandes_empresas
              conf_bancos
              prefer_religiosa
              afiliacion_politica
              balota
Test mode:    split 70.0% train, remainder test

=== Classifier model (full training set) ===

J48 pruned tree
------------------

prefer_religiosa = Protestant
|   conf_grandes_empresas = Only some
|   |   conf_prensa = A great deal
|   |   |   conf_television = Hardly any: democrat (110.0/44.0)
|   |   |   conf_television = Only some: democrat (324.0/132.0)
|   |   |   conf_television = A great deal
|   |   |   |   balota = Ballot b
|   |   |   |   |   conf_religion_organizada = A great deal
|   |   |   |   |   |   conf_educacion = Only some: democrat (13.0/4.0)
|   |   |   |   |   |   conf_educacion = A great deal
|   |   |   |   |   |   |   conf_gobierno_federal = Hardly any: Independent (1.0)
|   |   |   |   |   |   |   conf_gobierno_federal = Only some
|   |   |   |   |   |   |   |   conf_ejercito = A great deal: democrat (5.0/2.0)
|   |   |   |   |   |   |   |   conf_ejercito = Don't know: Independent (0.0)
|   |   |   |   |   |   |   |   conf_ejercito = Hardly any: Independent (0.0)
|   |   |   |   |   |   |   |   conf_ejercito = No answer: Independent (0.0)
|   |   |   |   |   |   |   |   conf_ejercito = Only some: Independent (4.0/1.0)
|   |   |   |   |   |   |   conf_gobierno_federal = A great deal: democrat (7.0/1.0)
|   |   |   |   |   |   |   conf_gobierno_federal = No answer: democrat (0.0)
|   |   |   |   |   |   |   conf_gobierno_federal = Don't know: democrat (0.0)
|   |   |   |   |   |   conf_educacion = Hardly any: republican (2.0)
|   |   |   |   |   |   conf_educacion = Don't know: democrat (0.0)
|   |   |   |   |   |   conf_educacion = No answer: democrat (0.0)
|   |   |   |   |   conf_religion_organizada = Only some
|   |   |   |   |   |   conf_congreso = Only some
|   |   |   |   |   |   |   conf_cientificos = A great deal: republican (10.0/2.0)
|   |   |   |   |   |   |   conf_cientificos = Only some: democrat (11.0/4.0)
|   |   |   |   |   |   |   conf_cientificos = Don't know: republican (3.0/1.0)
|   |   |   |   |   |   |   conf_cientificos = No answer: republican (0.0)
|   |   |   |   |   |   |   conf_cientificos = Hardly any: republican (0.0)
|   |   |   |   |   |   conf_congreso = A great deal
|   |   |   |   |   |   |   conf_bancos = A great deal: democrat (4.0)
|   |   |   |   |   |   |   conf_bancos = Only some
|   |   |   |   |   |   |   |   conf_gobierno_federal = Hardly any: republican (0.0)
|   |   |   |   |   |   |   |   conf_gobierno_federal = Only some: democrat (2.0)
|   |   |   |   |   |   |   |   conf_gobierno_federal = A great deal: republican (3.0)
|   |   |   |   |   |   |   |   conf_gobierno_federal = No answer: republican (0.0)
|   |   |   |   |   |   |   |   conf_gobierno_federal = Don't know: republican (0.0)
|   |   |   |   |   |   |   conf_bancos = Hardly any: republican (1.0)
|   |   |   |   |   |   |   conf_bancos = Don't know: democrat (0.0)
|   |   |   |   |   |   |   conf_bancos = No answer: democrat (0.0)
|   |   |   |   |   |   conf_congreso = Hardly any
|   |   |   |   |   |   |   conf_educacion = Only some: republican (3.0)
|   |   |   |   |   |   |   conf_educacion = A great deal: democrat (3.0/1.0)
|   |   |   |   |   |   |   conf_educacion = Hardly any: republican (2.0)
|   |   |   |   |   |   |   conf_educacion = Don't know: republican (0.0)
|   |   |   |   |   |   |   conf_educacion = No answer: republican (0.0)
|   |   |   |   |   |   conf_congreso = Don't know: republican (1.0)
|   |   |   |   |   |   conf_congreso = No answer: republican (0.0)
|   |   |   |   |   conf_religion_organizada = Hardly any: democrat (19.0/7.0)
|   |   |   |   |   conf_religion_organizada = Don't know: republican (1.0)
|   |   |   |   |   conf_religion_organizada = No answer: democrat (0.0)
|   |   |   |   balota = Ballot c
|   |   |   |   |   year_encuesta = '(-inf-1992]'
|   |   |   |   |   |   conf_educacion = Only some: democrat (15.0/4.0)
|   |   |   |   |   |   conf_educacion = A great deal
|   |   |   |   |   |   |   conf_religion_organizada = A great deal: democrat (9.0/4.0)
|   |   |   |   |   |   |   conf_religion_organizada = Only some
|   |   |   |   |   |   |   |   conf_bancos = A great deal: Independent (6.0/1.0)
|   |   |   |   |   |   |   |   conf_bancos = Only some: republican (2.0)
|   |   |   |   |   |   |   |   conf_bancos = Hardly any: Independent (0.0)
|   |   |   |   |   |   |   |   conf_bancos = Don't know: Independent (0.0)
|   |   |   |   |   |   |   |   conf_bancos = No answer: Independent (0.0)
|   |   |   |   |   |   |   conf_religion_organizada = Hardly any: republican (2.0)
|   |   |   |   |   |   |   conf_religion_organizada = Don't know: Independent (1.0)
|   |   |   |   |   |   |   conf_religion_organizada = No answer: Independent (0.0)
|   |   |   |   |   |   conf_educacion = Hardly any: Independent (2.0/1.0)
|   |   |   |   |   |   conf_educacion = Don't know: democrat (0.0)
|   |   |   |   |   |   conf_educacion = No answer: democrat (0.0)
|   |   |   |   |   year_encuesta = '(1992-1997]': democrat (13.0/5.0)
|   |   |   |   |   year_encuesta = '(1997-2001]'
|   |   |   |   |   |   conf_gobierno_federal = Hardly any: republican (2.0)
|   |   |   |   |   |   conf_gobierno_federal = Only some: republican (6.0/1.0)
|   |   |   |   |   |   conf_gobierno_federal = A great deal: democrat (2.0)
|   |   |   |   |   |   conf_gobierno_federal = No answer: republican (0.0)
|   |   |   |   |   |   conf_gobierno_federal = Don't know: democrat (1.0)
|   |   |   |   |   year_encuesta = '(2001-2007]'
|   |   |   |   |   |   conf_bancos = A great deal
|   |   |   |   |   |   |   conf_ejercito = A great deal: republican (4.0/1.0)
|   |   |   |   |   |   |   conf_ejercito = Don't know: democrat (0.0)
|   |   |   |   |   |   |   conf_ejercito = Hardly any: democrat (0.0)
|   |   |   |   |   |   |   conf_ejercito = No answer: democrat (0.0)
|   |   |   |   |   |   |   conf_ejercito = Only some: democrat (6.0/3.0)
|   |   |   |   |   |   conf_bancos = Only some: Independent (4.0/2.0)
|   |   |   |   |   |   conf_bancos = Hardly any: Independent (1.0)
|   |   |   |   |   |   conf_bancos = Don't know: republican (0.0)
|   |   |   |   |   |   conf_bancos = No answer: republican (0.0)
|   |   |   |   |   year_encuesta = '(2007-2013]'
|   |   |   |   |   |   conf_educacion = Only some
|   |   |   |   |   |   |   conf_cientificos = A great deal: republican (5.0/1.0)
|   |   |   |   |   |   |   conf_cientificos = Only some: Independent (4.0/1.0)
|   |   |   |   |   |   |   conf_cientificos = Don't know: democrat (1.0)
|   |   |   |   |   |   |   conf_cientificos = No answer: Independent (0.0)
|   |   |   |   |   |   |   conf_cientificos = Hardly any: Independent (0.0)
|   |   |   |   |   |   conf_educacion = A great deal: democrat (5.0/2.0)
|   |   |   |   |   |   conf_educacion = Hardly any: republican (0.0)
|   |   |   |   |   |   conf_educacion = Don't know: republican (0.0)
|   |   |   |   |   |   conf_educacion = No answer: republican (0.0)
|   |   |   |   |   year_encuesta = '(2013-inf)': Independent (5.0/2.0)
|   |   |   conf_television = No answer: democrat (0.0)
|   |   |   conf_television = Don't know: republican (4.0)
|   |   conf_prensa = Only some
|   |   |   conf_ejercito = A great deal
|   |   |   |   conf_television = Hardly any
|   |   |   |   |   conf_cientificos = A great deal
|   |   |   |   |   |   conf_religion_organizada = A great deal: republican (48.0/17.0)
|   |   |   |   |   |   conf_religion_organizada = Only some
|   |   |   |   |   |   |   year_encuesta = '(-inf-1992]': republican (7.0/2.0)
|   |   |   |   |   |   |   year_encuesta = '(1992-1997]'
|   |   |   |   |   |   |   |   conf_bancos = A great deal: republican (3.0)
|   |   |   |   |   |   |   |   conf_bancos = Only some
|   |   |   |   |   |   |   |   |   conf_congreso = Only some: republican (9.0/2.0)
|   |   |   |   |   |   |   |   |   conf_congreso = A great deal: republican (0.0)
|   |   |   |   |   |   |   |   |   conf_congreso = Hardly any
|   |   |   |   |   |   |   |   |   |   conf_gobierno_federal = Hardly any: Independent (3.0/1.0)
|   |   |   |   |   |   |   |   |   |   conf_gobierno_federal = Only some: republican (2.0)
|   |   |   |   |   |   |   |   |   |   conf_gobierno_federal = A great deal: Independent (0.0)
|   |   |   |   |   |   |   |   |   |   conf_gobierno_federal = No answer: Independent (0.0)
|   |   |   |   |   |   |   |   |   |   conf_gobierno_federal = Don't know: Independent (0.0)
|   |   |   |   |   |   |   |   |   conf_congreso = Don't know: republican (0.0)
|   |   |   |   |   |   |   |   |   conf_congreso = No answer: republican (0.0)
|   |   |   |   |   |   |   |   conf_bancos = Hardly any: democrat (2.0)
|   |   |   |   |   |   |   |   conf_bancos = Don't know: republican (0.0)
|   |   |   |   |   |   |   |   conf_bancos = No answer: republican (0.0)
|   |   |   |   |   |   |   year_encuesta = '(1997-2001]': democrat (11.0/4.0)
|   |   |   |   |   |   |   year_encuesta = '(2001-2007]'
|   |   |   |   |   |   |   |   conf_congreso = Only some
|   |   |   |   |   |   |   |   |   balota = Ballot b: republican (6.0/1.0)
|   |   |   |   |   |   |   |   |   balota = Ballot c: democrat (2.0)
|   |   |   |   |   |   |   |   conf_congreso = A great deal: republican (5.0/2.0)
|   |   |   |   |   |   |   |   conf_congreso = Hardly any: democrat (1.0)
|   |   |   |   |   |   |   |   conf_congreso = Don't know: republican (0.0)
|   |   |   |   |   |   |   |   conf_congreso = No answer: republican (0.0)
|   |   |   |   |   |   |   year_encuesta = '(2007-2013]'
|   |   |   |   |   |   |   |   conf_congreso = Only some: democrat (7.0/1.0)
|   |   |   |   |   |   |   |   conf_congreso = A great deal: democrat (0.0)
|   |   |   |   |   |   |   |   conf_congreso = Hardly any
|   |   |   |   |   |   |   |   |   conf_gobierno_federal = Hardly any: republican (2.0)
|   |   |   |   |   |   |   |   |   conf_gobierno_federal = Only some: democrat (5.0/2.0)
|   |   |   |   |   |   |   |   |   conf_gobierno_federal = A great deal: republican (0.0)
|   |   |   |   |   |   |   |   |   conf_gobierno_federal = No answer: republican (0.0)
|   |   |   |   |   |   |   |   |   conf_gobierno_federal = Don't know: republican (0.0)
|   |   |   |   |   |   |   |   conf_congreso = Don't know: democrat (0.0)
|   |   |   |   |   |   |   |   conf_congreso = No answer: democrat (0.0)
|   |   |   |   |   |   |   year_encuesta = '(2013-inf)': republican (7.0/2.0)
|   |   |   |   |   |   conf_religion_organizada = Hardly any
|   |   |   |   |   |   |   conf_educacion = Only some: republican (16.0/6.0)
|   |   |   |   |   |   |   conf_educacion = A great deal: democrat (6.0/2.0)
|   |   |   |   |   |   |   conf_educacion = Hardly any: democrat (5.0/1.0)
|   |   |   |   |   |   |   conf_educacion = Don't know: democrat (0.0)
|   |   |   |   |   |   |   conf_educacion = No answer: democrat (0.0)
|   |   |   |   |   |   conf_religion_organizada = Don't know: Independent (4.0/2.0)
|   |   |   |   |   |   conf_religion_organizada = No answer: republican (0.0)
|   |   |   |   |   conf_cientificos = Only some
|   |   |   |   |   |   conf_educacion = Only some
|   |   |   |   |   |   |   conf_gobierno_federal = Hardly any
|   |   |   |   |   |   |   |   balota = Ballot b
|   |   |   |   |   |   |   |   |   conf_religion_organizada = A great deal: Independent (4.0/2.0)
|   |   |   |   |   |   |   |   |   conf_religion_organizada = Only some: republican (17.0/8.0)
|   |   |   |   |   |   |   |   |   conf_religion_organizada = Hardly any: Independent (2.0)
|   |   |   |   |   |   |   |   |   conf_religion_organizada = Don't know: republican (0.0)
|   |   |   |   |   |   |   |   |   conf_religion_organizada = No answer: republican (0.0)
|   |   |   |   |   |   |   |   balota = Ballot c
|   |   |   |   |   |   |   |   |   year_encuesta = '(-inf-1992]': democrat (3.0/2.0)
|   |   |   |   |   |   |   |   |   year_encuesta = '(1992-1997]': republican (6.0/1.0)
|   |   |   |   |   |   |   |   |   year_encuesta = '(1997-2001]': republican (3.0)
|   |   |   |   |   |   |   |   |   year_encuesta = '(2001-2007]': democrat (2.0)
|   |   |   |   |   |   |   |   |   year_encuesta = '(2007-2013]': republican (4.0/2.0)
|   |   |   |   |   |   |   |   |   year_encuesta = '(2013-inf)': democrat (5.0/1.0)
|   |   |   |   |   |   |   conf_gobierno_federal = Only some
|   |   |   |   |   |   |   |   year_encuesta = '(-inf-1992]'
|   |   |   |   |   |   |   |   |   conf_congreso = Only some: democrat (6.0/3.0)
|   |   |   |   |   |   |   |   |   conf_congreso = A great deal: Independent (2.0)
|   |   |   |   |   |   |   |   |   conf_congreso = Hardly any: democrat (1.0)
|   |   |   |   |   |   |   |   |   conf_congreso = Don't know: democrat (0.0)
|   |   |   |   |   |   |   |   |   conf_congreso = No answer: democrat (0.0)
|   |   |   |   |   |   |   |   year_encuesta = '(1992-1997]'
|   |   |   |   |   |   |   |   |   conf_congreso = Only some: democrat (15.0/5.0)
|   |   |   |   |   |   |   |   |   conf_congreso = A great deal: republican (2.0)
|   |   |   |   |   |   |   |   |   conf_congreso = Hardly any: republican (1.0)
|   |   |   |   |   |   |   |   |   conf_congreso = Don't know: democrat (0.0)
|   |   |   |   |   |   |   |   |   conf_congreso = No answer: democrat (0.0)
|   |   |   |   |   |   |   |   year_encuesta = '(1997-2001]': democrat (5.0/3.0)
|   |   |   |   |   |   |   |   year_encuesta = '(2001-2007]': republican (11.0/4.0)
|   |   |   |   |   |   |   |   year_encuesta = '(2007-2013]': democrat (10.0/4.0)
|   |   |   |   |   |   |   |   year_encuesta = '(2013-inf)': democrat (12.0/3.0)
|   |   |   |   |   |   |   conf_gobierno_federal = A great deal
|   |   |   |   |   |   |   |   year_encuesta = '(-inf-1992]': republican (5.0/1.0)
|   |   |   |   |   |   |   |   year_encuesta = '(1992-1997]': democrat (4.0)
|   |   |   |   |   |   |   |   year_encuesta = '(1997-2001]': democrat (1.0)
|   |   |   |   |   |   |   |   year_encuesta = '(2001-2007]': republican (5.0/1.0)
|   |   |   |   |   |   |   |   year_encuesta = '(2007-2013]': republican (3.0/1.0)
|   |   |   |   |   |   |   |   year_encuesta = '(2013-inf)': republican (6.0/2.0)
|   |   |   |   |   |   |   conf_gobierno_federal = No answer: republican (0.0)
|   |   |   |   |   |   |   conf_gobierno_federal = Don't know: democrat (1.0)
|   |   |   |   |   |   conf_educacion = A great deal
|   |   |   |   |   |   |   conf_gobierno_federal = Hardly any: republican (15.0/9.0)
|   |   |   |   |   |   |   conf_gobierno_federal = Only some
|   |   |   |   |   |   |   |   conf_congreso = Only some
|   |   |   |   |   |   |   |   |   balota = Ballot b: democrat (6.0/3.0)
|   |   |   |   |   |   |   |   |   balota = Ballot c: republican (15.0/7.0)
|   |   |   |   |   |   |   |   conf_congreso = A great deal: republican (2.0)
|   |   |   |   |   |   |   |   conf_congreso = Hardly any: democrat (1.0)
|   |   |   |   |   |   |   |   conf_congreso = Don't know: republican (0.0)
|   |   |   |   |   |   |   |   conf_congreso = No answer: republican (0.0)
|   |   |   |   |   |   |   conf_gobierno_federal = A great deal: democrat (7.0/1.0)
|   |   |   |   |   |   |   conf_gobierno_federal = No answer: republican (1.0)
|   |   |   |   |   |   |   conf_gobierno_federal = Don't know: democrat (0.0)
|   |   |   |   |   |   conf_educacion = Hardly any
|   |   |   |   |   |   |   balota = Ballot b
|   |   |   |   |   |   |   |   conf_gobierno_federal = Hardly any: republican (6.0)
|   |   |   |   |   |   |   |   conf_gobierno_federal = Only some: democrat (9.0/3.0)
|   |   |   |   |   |   |   |   conf_gobierno_federal = A great deal: democrat (2.0)
|   |   |   |   |   |   |   |   conf_gobierno_federal = No answer: democrat (0.0)
|   |   |   |   |   |   |   |   conf_gobierno_federal = Don't know: democrat (0.0)
|   |   |   |   |   |   |   balota = Ballot c: republican (9.0/4.0)
|   |   |   |   |   |   conf_educacion = Don't know: No answer (1.0)
|   |   |   |   |   |   conf_educacion = No answer: republican (0.0)
|   |   |   |   |   conf_cientificos = Don't know
|   |   |   |   |   |   conf_educacion = Only some: democrat (12.0/7.0)
|   |   |   |   |   |   conf_educacion = A great deal: democrat (8.0/3.0)
|   |   |   |   |   |   conf_educacion = Hardly any: Independent (3.0)
|   |   |   |   |   |   conf_educacion = Don't know: democrat (0.0)
|   |   |   |   |   |   conf_educacion = No answer: democrat (0.0)
|   |   |   |   |   conf_cientificos = No answer: Independent (2.0/1.0)
|   |   |   |   |   conf_cientificos = Hardly any
|   |   |   |   |   |   conf_religion_organizada = A great deal: republican (4.0)
|   |   |   |   |   |   conf_religion_organizada = Only some: democrat (7.0/2.0)
|   |   |   |   |   |   conf_religion_organizada = Hardly any: democrat (5.0/2.0)
|   |   |   |   |   |   conf_religion_organizada = Don't know: democrat (0.0)
|   |   |   |   |   |   conf_religion_organizada = No answer: democrat (0.0)
|   |   |   |   conf_television = Only some
|   |   |   |   |   conf_cientificos = A great deal
|   |   |   |   |   |   conf_religion_organizada = A great deal
|   |   |   |   |   |   |   conf_congreso = Only some
|   |   |   |   |   |   |   |   conf_educacion = Only some: republican (38.0/14.0)
|   |   |   |   |   |   |   |   conf_educacion = A great deal: democrat (41.0/20.0)
|   |   |   |   |   |   |   |   conf_educacion = Hardly any: democrat (2.0/1.0)
|   |   |   |   |   |   |   |   conf_educacion = Don't know: republican (0.0)
|   |   |   |   |   |   |   |   conf_educacion = No answer: republican (0.0)
|   |   |   |   |   |   |   conf_congreso = A great deal: republican (23.0/8.0)
|   |   |   |   |   |   |   conf_congreso = Hardly any
|   |   |   |   |   |   |   |   conf_bancos = A great deal: republican (4.0/2.0)
|   |   |   |   |   |   |   |   conf_bancos = Only some: democrat (16.0/7.0)
|   |   |   |   |   |   |   |   conf_bancos = Hardly any: republican (2.0)
|   |   |   |   |   |   |   |   conf_bancos = Don't know: democrat (0.0)
|   |   |   |   |   |   |   |   conf_bancos = No answer: democrat (0.0)
|   |   |   |   |   |   |   conf_congreso = Don't know: democrat (3.0)
|   |   |   |   |   |   |   conf_congreso = No answer: republican (0.0)
|   |   |   |   |   |   conf_religion_organizada = Only some
|   |   |   |   |   |   |   conf_bancos = A great deal: democrat (65.0/30.0)
|   |   |   |   |   |   |   conf_bancos = Only some
|   |   |   |   |   |   |   |   conf_gobierno_federal = Hardly any: republican (46.0/22.0)
|   |   |   |   |   |   |   |   conf_gobierno_federal = Only some
|   |   |   |   |   |   |   |   |   conf_congreso = Only some: republican (50.0/25.0)
|   |   |   |   |   |   |   |   |   conf_congreso = A great deal: democrat (6.0/2.0)
|   |   |   |   |   |   |   |   |   conf_congreso = Hardly any: democrat (16.0/8.0)
|   |   |   |   |   |   |   |   |   conf_congreso = Don't know: democrat (1.0)
|   |   |   |   |   |   |   |   |   conf_congreso = No answer: republican (0.0)
|   |   |   |   |   |   |   |   conf_gobierno_federal = A great deal
|   |   |   |   |   |   |   |   |   year_encuesta = '(-inf-1992]': republican (14.0/1.0)
|   |   |   |   |   |   |   |   |   year_encuesta = '(1992-1997]'
|   |   |   |   |   |   |   |   |   |   conf_congreso = Only some: republican (3.0/1.0)
|   |   |   |   |   |   |   |   |   |   conf_congreso = A great deal: democrat (2.0)
|   |   |   |   |   |   |   |   |   |   conf_congreso = Hardly any: democrat (0.0)
|   |   |   |   |   |   |   |   |   |   conf_congreso = Don't know: democrat (0.0)
|   |   |   |   |   |   |   |   |   |   conf_congreso = No answer: democrat (0.0)
|   |   |   |   |   |   |   |   |   year_encuesta = '(1997-2001]': democrat (2.0)
|   |   |   |   |   |   |   |   |   year_encuesta = '(2001-2007]'
|   |   |   |   |   |   |   |   |   |   balota = Ballot b: democrat (5.0/2.0)
|   |   |   |   |   |   |   |   |   |   balota = Ballot c
|   |   |   |   |   |   |   |   |   |   |   conf_congreso = Only some: republican (2.0/1.0)
|   |   |   |   |   |   |   |   |   |   |   conf_congreso = A great deal: Independent (2.0)
|   |   |   |   |   |   |   |   |   |   |   conf_congreso = Hardly any: Independent (0.0)
|   |   |   |   |   |   |   |   |   |   |   conf_congreso = Don't know: Independent (0.0)
|   |   |   |   |   |   |   |   |   |   |   conf_congreso = No answer: Independent (0.0)
|   |   |   |   |   |   |   |   |   year_encuesta = '(2007-2013]'
|   |   |   |   |   |   |   |   |   |   conf_educacion = Only some
|   |   |   |   |   |   |   |   |   |   |   balota = Ballot b: republican (3.0/1.0)
|   |   |   |   |   |   |   |   |   |   |   balota = Ballot c: democrat (2.0)
|   |   |   |   |   |   |   |   |   |   conf_educacion = A great deal: republican (3.0/1.0)
|   |   |   |   |   |   |   |   |   |   conf_educacion = Hardly any: democrat (0.0)
|   |   |   |   |   |   |   |   |   |   conf_educacion = Don't know: democrat (0.0)
|   |   |   |   |   |   |   |   |   |   conf_educacion = No answer: democrat (0.0)
|   |   |   |   |   |   |   |   |   year_encuesta = '(2013-inf)': democrat (5.0)
|   |   |   |   |   |   |   |   conf_gobierno_federal = No answer: republican (0.0)
|   |   |   |   |   |   |   |   conf_gobierno_federal = Don't know: Independent (1.0)
|   |   |   |   |   |   |   conf_bancos = Hardly any: democrat (31.0/14.0)
|   |   |   |   |   |   |   conf_bancos = Don't know: democrat (0.0)
|   |   |   |   |   |   |   conf_bancos = No answer: democrat (0.0)
|   |   |   |   |   |   conf_religion_organizada = Hardly any
|   |   |   |   |   |   |   conf_congreso = Only some
|   |   |   |   |   |   |   |   conf_bancos = A great deal: democrat (5.0/1.0)
|   |   |   |   |   |   |   |   conf_bancos = Only some: republican (16.0/8.0)
|   |   |   |   |   |   |   |   conf_bancos = Hardly any: Independent (3.0/1.0)
|   |   |   |   |   |   |   |   conf_bancos = Don't know: Independent (0.0)
|   |   |   |   |   |   |   |   conf_bancos = No answer: Independent (0.0)
|   |   |   |   |   |   |   conf_congreso = A great deal: republican (8.0/2.0)
|   |   |   |   |   |   |   conf_congreso = Hardly any: democrat (10.0/3.0)
|   |   |   |   |   |   |   conf_congreso = Don't know: democrat (0.0)
|   |   |   |   |   |   |   conf_congreso = No answer: democrat (0.0)
|   |   |   |   |   |   conf_religion_organizada = Don't know: democrat (5.0)
|   |   |   |   |   |   conf_religion_organizada = No answer: republican (0.0)
|   |   |   |   |   conf_cientificos = Only some
|   |   |   |   |   |   conf_religion_organizada = A great deal
|   |   |   |   |   |   |   year_encuesta = '(-inf-1992]': democrat (26.0/7.0)
|   |   |   |   |   |   |   year_encuesta = '(1992-1997]': democrat (22.0/9.0)
|   |   |   |   |   |   |   year_encuesta = '(1997-2001]': democrat (23.0/11.0)
|   |   |   |   |   |   |   year_encuesta = '(2001-2007]': republican (32.0/14.0)
|   |   |   |   |   |   |   year_encuesta = '(2007-2013]'
|   |   |   |   |   |   |   |   conf_gobierno_federal = Hardly any: republican (7.0/3.0)
|   |   |   |   |   |   |   |   conf_gobierno_federal = Only some
|   |   |   |   |   |   |   |   |   conf_educacion = Only some: democrat (9.0/3.0)
|   |   |   |   |   |   |   |   |   conf_educacion = A great deal: republican (10.0/4.0)
|   |   |   |   |   |   |   |   |   conf_educacion = Hardly any: democrat (0.0)
|   |   |   |   |   |   |   |   |   conf_educacion = Don't know: democrat (0.0)
|   |   |   |   |   |   |   |   |   conf_educacion = No answer: democrat (0.0)
|   |   |   |   |   |   |   |   conf_gobierno_federal = A great deal: republican (3.0/1.0)
|   |   |   |   |   |   |   |   conf_gobierno_federal = No answer: republican (0.0)
|   |   |   |   |   |   |   |   conf_gobierno_federal = Don't know: republican (0.0)
|   |   |   |   |   |   |   year_encuesta = '(2013-inf)'
|   |   |   |   |   |   |   |   conf_congreso = Only some: democrat (9.0/2.0)
|   |   |   |   |   |   |   |   conf_congreso = A great deal: democrat (1.0)
|   |   |   |   |   |   |   |   conf_congreso = Hardly any: republican (8.0/2.0)
|   |   |   |   |   |   |   |   conf_congreso = Don't know: democrat (0.0)
|   |   |   |   |   |   |   |   conf_congreso = No answer: democrat (0.0)
|   |   |   |   |   |   conf_religion_organizada = Only some
|   |   |   |   |   |   |   conf_congreso = Only some
|   |   |   |   |   |   |   |   conf_educacion = Only some
|   |   |   |   |   |   |   |   |   conf_bancos = A great deal: republican (25.0/9.0)
|   |   |   |   |   |   |   |   |   conf_bancos = Only some
|   |   |   |   |   |   |   |   |   |   year_encuesta = '(-inf-1992]'
|   |   |   |   |   |   |   |   |   |   |   balota = Ballot b: democrat (12.0/2.0)
|   |   |   |   |   |   |   |   |   |   |   balota = Ballot c: republican (13.0/5.0)
|   |   |   |   |   |   |   |   |   |   year_encuesta = '(1992-1997]'
|   |   |   |   |   |   |   |   |   |   |   conf_gobierno_federal = Hardly any: democrat (3.0/1.0)
|   |   |   |   |   |   |   |   |   |   |   conf_gobierno_federal = Only some: republican (10.0/4.0)
|   |   |   |   |   |   |   |   |   |   |   conf_gobierno_federal = A great deal: democrat (0.0)
|   |   |   |   |   |   |   |   |   |   |   conf_gobierno_federal = No answer: democrat (0.0)
|   |   |   |   |   |   |   |   |   |   |   conf_gobierno_federal = Don't know: democrat (1.0)
|   |   |   |   |   |   |   |   |   |   year_encuesta = '(1997-2001]': democrat (10.0/4.0)
|   |   |   |   |   |   |   |   |   |   year_encuesta = '(2001-2007]'
|   |   |   |   |   |   |   |   |   |   |   conf_gobierno_federal = Hardly any: democrat (2.0)
|   |   |   |   |   |   |   |   |   |   |   conf_gobierno_federal = Only some: democrat (12.0/6.0)
|   |   |   |   |   |   |   |   |   |   |   conf_gobierno_federal = A great deal: republican (2.0)
|   |   |   |   |   |   |   |   |   |   |   conf_gobierno_federal = No answer: democrat (0.0)
|   |   |   |   |   |   |   |   |   |   |   conf_gobierno_federal = Don't know: democrat (0.0)
|   |   |   |   |   |   |   |   |   |   year_encuesta = '(2007-2013]': democrat (22.0/9.0)
|   |   |   |   |   |   |   |   |   |   year_encuesta = '(2013-inf)': republican (15.0/7.0)
|   |   |   |   |   |   |   |   |   conf_bancos = Hardly any: democrat (10.0/4.0)
|   |   |   |   |   |   |   |   |   conf_bancos = Don't know: democrat (0.0)
|   |   |   |   |   |   |   |   |   conf_bancos = No answer: democrat (0.0)
|   |   |   |   |   |   |   |   conf_educacion = A great deal: democrat (65.0/24.0)
|   |   |   |   |   |   |   |   conf_educacion = Hardly any: democrat (15.0/8.0)
|   |   |   |   |   |   |   |   conf_educacion = Don't know: democrat (0.0)
|   |   |   |   |   |   |   |   conf_educacion = No answer: democrat (0.0)
|   |   |   |   |   |   |   conf_congreso = A great deal
|   |   |   |   |   |   |   |   balota = Ballot b
|   |   |   |   |   |   |   |   |   conf_gobierno_federal = Hardly any: Independent (2.0/1.0)
|   |   |   |   |   |   |   |   |   conf_gobierno_federal = Only some: Independent (6.0/3.0)
|   |   |   |   |   |   |   |   |   conf_gobierno_federal = A great deal: republican (2.0)
|   |   |   |   |   |   |   |   |   conf_gobierno_federal = No answer: Independent (0.0)
|   |   |   |   |   |   |   |   |   conf_gobierno_federal = Don't know: Independent (0.0)
|   |   |   |   |   |   |   |   balota = Ballot c: republican (9.0/4.0)
|   |   |   |   |   |   |   conf_congreso = Hardly any
|   |   |   |   |   |   |   |   year_encuesta = '(-inf-1992]': republican (9.0/4.0)
|   |   |   |   |   |   |   |   year_encuesta = '(1992-1997]': republican (14.0/5.0)
|   |   |   |   |   |   |   |   year_encuesta = '(1997-2001]': democrat (4.0)
|   |   |   |   |   |   |   |   year_encuesta = '(2001-2007]'
|   |   |   |   |   |   |   |   |   conf_educacion = Only some
|   |   |   |   |   |   |   |   |   |   conf_gobierno_federal = Hardly any: Independent (6.0/2.0)
|   |   |   |   |   |   |   |   |   |   conf_gobierno_federal = Only some: democrat (5.0/2.0)
|   |   |   |   |   |   |   |   |   |   conf_gobierno_federal = A great deal: Independent (0.0)
|   |   |   |   |   |   |   |   |   |   conf_gobierno_federal = No answer: Independent (0.0)
|   |   |   |   |   |   |   |   |   |   conf_gobierno_federal = Don't know: Independent (0.0)
|   |   |   |   |   |   |   |   |   conf_educacion = A great deal: democrat (3.0/1.0)
|   |   |   |   |   |   |   |   |   conf_educacion = Hardly any: Independent (1.0)
|   |   |   |   |   |   |   |   |   conf_educacion = Don't know: democrat (0.0)
|   |   |   |   |   |   |   |   |   conf_educacion = No answer: democrat (0.0)
|   |   |   |   |   |   |   |   year_encuesta = '(2007-2013]'
|   |   |   |   |   |   |   |   |   conf_bancos = A great deal: democrat (4.0)
|   |   |   |   |   |   |   |   |   conf_bancos = Only some: republican (13.0/6.0)
|   |   |   |   |   |   |   |   |   conf_bancos = Hardly any
|   |   |   |   |   |   |   |   |   |   balota = Ballot b: republican (2.0)
|   |   |   |   |   |   |   |   |   |   balota = Ballot c: democrat (3.0/1.0)
|   |   |   |   |   |   |   |   |   conf_bancos = Don't know: democrat (0.0)
|   |   |   |   |   |   |   |   |   conf_bancos = No answer: democrat (0.0)
|   |   |   |   |   |   |   |   year_encuesta = '(2013-inf)': republican (22.0/10.0)
|   |   |   |   |   |   |   conf_congreso = Don't know: democrat (1.0)
|   |   |   |   |   |   |   conf_congreso = No answer: democrat (0.0)
|   |   |   |   |   |   conf_religion_organizada = Hardly any
|   |   |   |   |   |   |   conf_bancos = A great deal: democrat (9.0/4.0)
|   |   |   |   |   |   |   conf_bancos = Only some
|   |   |   |   |   |   |   |   conf_gobierno_federal = Hardly any: democrat (18.0/8.0)
|   |   |   |   |   |   |   |   conf_gobierno_federal = Only some: democrat (21.0/8.0)
|   |   |   |   |   |   |   |   conf_gobierno_federal = A great deal: republican (5.0/1.0)
|   |   |   |   |   |   |   |   conf_gobierno_federal = No answer: democrat (0.0)
|   |   |   |   |   |   |   |   conf_gobierno_federal = Don't know: democrat (0.0)
|   |   |   |   |   |   |   conf_bancos = Hardly any
|   |   |   |   |   |   |   |   year_encuesta = '(-inf-1992]': Independent (2.0/1.0)
|   |   |   |   |   |   |   |   year_encuesta = '(1992-1997]': Independent (1.0)
|   |   |   |   |   |   |   |   year_encuesta = '(1997-2001]': Independent (0.0)
|   |   |   |   |   |   |   |   year_encuesta = '(2001-2007]': Independent (3.0)
|   |   |   |   |   |   |   |   year_encuesta = '(2007-2013]': republican (2.0)
|   |   |   |   |   |   |   |   year_encuesta = '(2013-inf)': republican (2.0)
|   |   |   |   |   |   |   conf_bancos = Don't know: democrat (0.0)
|   |   |   |   |   |   |   conf_bancos = No answer: democrat (0.0)
|   |   |   |   |   |   conf_religion_organizada = Don't know
|   |   |   |   |   |   |   balota = Ballot b: republican (3.0)
|   |   |   |   |   |   |   balota = Ballot c: Independent (2.0)
|   |   |   |   |   |   conf_religion_organizada = No answer: Independent (2.0/1.0)
|   |   |   |   |   conf_cientificos = Don't know
|   |   |   |   |   |   conf_gobierno_federal = Hardly any: republican (13.0/4.0)
|   |   |   |   |   |   conf_gobierno_federal = Only some
|   |   |   |   |   |   |   conf_congreso = Only some
|   |   |   |   |   |   |   |   conf_bancos = A great deal: republican (3.0/1.0)
|   |   |   |   |   |   |   |   conf_bancos = Only some: republican (10.0/4.0)
|   |   |   |   |   |   |   |   conf_bancos = Hardly any: democrat (2.0)
|   |   |   |   |   |   |   |   conf_bancos = Don't know: republican (0.0)
|   |   |   |   |   |   |   |   conf_bancos = No answer: republican (0.0)
|   |   |   |   |   |   |   conf_congreso = A great deal: democrat (1.0)
|   |   |   |   |   |   |   conf_congreso = Hardly any: democrat (4.0/1.0)
|   |   |   |   |   |   |   conf_congreso = Don't know: Independent (2.0)
|   |   |   |   |   |   |   conf_congreso = No answer: democrat (0.0)
|   |   |   |   |   |   conf_gobierno_federal = A great deal: democrat (13.0/4.0)
|   |   |   |   |   |   conf_gobierno_federal = No answer: democrat (0.0)
|   |   |   |   |   |   conf_gobierno_federal = Don't know: democrat (6.0/2.0)
|   |   |   |   |   conf_cientificos = No answer: democrat (1.0)
|   |   |   |   |   conf_cientificos = Hardly any
|   |   |   |   |   |   conf_gobierno_federal = Hardly any
|   |   |   |   |   |   |   conf_congreso = Only some: republican (5.0/1.0)
|   |   |   |   |   |   |   conf_congreso = A great deal: republican (3.0)
|   |   |   |   |   |   |   conf_congreso = Hardly any
|   |   |   |   |   |   |   |   conf_educacion = Only some: democrat (2.0)
|   |   |   |   |   |   |   |   conf_educacion = A great deal: democrat (2.0)
|   |   |   |   |   |   |   |   conf_educacion = Hardly any: republican (2.0)
|   |   |   |   |   |   |   |   conf_educacion = Don't know: democrat (0.0)
|   |   |   |   |   |   |   |   conf_educacion = No answer: democrat (0.0)
|   |   |   |   |   |   |   conf_congreso = Don't know: republican (0.0)
|   |   |   |   |   |   |   conf_congreso = No answer: republican (0.0)
|   |   |   |   |   |   conf_gobierno_federal = Only some: democrat (19.0/5.0)
|   |   |   |   |   |   conf_gobierno_federal = A great deal: democrat (3.0/1.0)
|   |   |   |   |   |   conf_gobierno_federal = No answer: democrat (0.0)
|   |   |   |   |   |   conf_gobierno_federal = Don't know: democrat (0.0)
|   |   |   |   conf_television = A great deal: democrat (180.0/81.0)
|   |   |   |   conf_television = No answer: democrat (2.0/1.0)
|   |   |   |   conf_television = Don't know: democrat (11.0/4.0)
|   |   |   conf_ejercito = Don't know
|   |   |   |   conf_gobierno_federal = Hardly any: Independent (14.0/7.0)
|   |   |   |   conf_gobierno_federal = Only some
|   |   |   |   |   conf_television = Hardly any: democrat (7.0/1.0)
|   |   |   |   |   conf_television = Only some
|   |   |   |   |   |   conf_religion_organizada = A great deal: democrat (2.0)
|   |   |   |   |   |   conf_religion_organizada = Only some: republican (6.0/2.0)
|   |   |   |   |   |   conf_religion_organizada = Hardly any: democrat (2.0/1.0)
|   |   |   |   |   |   conf_religion_organizada = Don't know: republican (2.0)
|   |   |   |   |   |   conf_religion_organizada = No answer: republican (0.0)
|   |   |   |   |   conf_television = A great deal: republican (1.0)
|   |   |   |   |   conf_television = No answer: republican (0.0)
|   |   |   |   |   conf_television = Don't know: republican (2.0)
|   |   |   |   conf_gobierno_federal = A great deal: democrat (0.0)
|   |   |   |   conf_gobierno_federal = No answer: democrat (0.0)
|   |   |   |   conf_gobierno_federal = Don't know: democrat (8.0/3.0)
|   |   |   conf_ejercito = Hardly any
|   |   |   |   year_encuesta = '(-inf-1992]'
|   |   |   |   |   conf_congreso = Only some: democrat (51.0/18.0)
|   |   |   |   |   conf_congreso = A great deal: democrat (1.0)
|   |   |   |   |   conf_congreso = Hardly any
|   |   |   |   |   |   conf_cientificos = A great deal
|   |   |   |   |   |   |   conf_religion_organizada = A great deal: republican (0.0)
|   |   |   |   |   |   |   conf_religion_organizada = Only some: republican (4.0)
|   |   |   |   |   |   |   conf_religion_organizada = Hardly any: democrat (3.0/1.0)
|   |   |   |   |   |   |   conf_religion_organizada = Don't know: republican (0.0)
|   |   |   |   |   |   |   conf_religion_organizada = No answer: republican (0.0)
|   |   |   |   |   |   conf_cientificos = Only some
|   |   |   |   |   |   |   conf_television = Hardly any: democrat (5.0/2.0)
|   |   |   |   |   |   |   conf_television = Only some: republican (9.0/3.0)
|   |   |   |   |   |   |   conf_television = A great deal: democrat (2.0)
|   |   |   |   |   |   |   conf_television = No answer: republican (0.0)
|   |   |   |   |   |   |   conf_television = Don't know: republican (0.0)
|   |   |   |   |   |   conf_cientificos = Don't know: Independent (2.0/1.0)
|   |   |   |   |   |   conf_cientificos = No answer: republican (1.0)
|   |   |   |   |   |   conf_cientificos = Hardly any: Independent (1.0)
|   |   |   |   |   conf_congreso = Don't know: democrat (0.0)
|   |   |   |   |   conf_congreso = No answer: democrat (0.0)
|   |   |   |   year_encuesta = '(1992-1997]'
|   |   |   |   |   conf_congreso = Only some: democrat (21.0/9.0)
|   |   |   |   |   conf_congreso = A great deal: democrat (2.0)
|   |   |   |   |   conf_congreso = Hardly any
|   |   |   |   |   |   conf_cientificos = A great deal: republican (8.0/2.0)
|   |   |   |   |   |   conf_cientificos = Only some
|   |   |   |   |   |   |   conf_religion_organizada = A great deal: Independent (3.0/2.0)
|   |   |   |   |   |   |   conf_religion_organizada = Only some
|   |   |   |   |   |   |   |   balota = Ballot b: republican (12.0/3.0)
|   |   |   |   |   |   |   |   balota = Ballot c
|   |   |   |   |   |   |   |   |   conf_television = Hardly any: democrat (4.0/1.0)
|   |   |   |   |   |   |   |   |   conf_television = Only some
|   |   |   |   |   |   |   |   |   |   conf_educacion = Only some: democrat (3.0/1.0)
|   |   |   |   |   |   |   |   |   |   conf_educacion = A great deal: Independent (2.0)
|   |   |   |   |   |   |   |   |   |   conf_educacion = Hardly any: Independent (0.0)
|   |   |   |   |   |   |   |   |   |   conf_educacion = Don't know: Independent (0.0)
|   |   |   |   |   |   |   |   |   |   conf_educacion = No answer: Independent (0.0)
|   |   |   |   |   |   |   |   |   conf_television = A great deal: democrat (0.0)
|   |   |   |   |   |   |   |   |   conf_television = No answer: democrat (0.0)
|   |   |   |   |   |   |   |   |   conf_television = Don't know: democrat (0.0)
|   |   |   |   |   |   |   conf_religion_organizada = Hardly any
|   |   |   |   |   |   |   |   conf_educacion = Only some: Independent (8.0/4.0)
|   |   |   |   |   |   |   |   conf_educacion = A great deal: democrat (0.0)
|   |   |   |   |   |   |   |   conf_educacion = Hardly any: democrat (2.0)
|   |   |   |   |   |   |   |   conf_educacion = Don't know: democrat (0.0)
|   |   |   |   |   |   |   |   conf_educacion = No answer: democrat (0.0)
|   |   |   |   |   |   |   conf_religion_organizada = Don't know: Independent (2.0)
|   |   |   |   |   |   |   conf_religion_organizada = No answer: democrat (0.0)
|   |   |   |   |   |   conf_cientificos = Don't know: republican (1.0)
|   |   |   |   |   |   conf_cientificos = No answer: republican (0.0)
|   |   |   |   |   |   conf_cientificos = Hardly any
|   |   |   |   |   |   |   balota = Ballot b: democrat (4.0/1.0)
|   |   |   |   |   |   |   balota = Ballot c: Independent (8.0/3.0)
|   |   |   |   |   conf_congreso = Don't know: democrat (0.0)
|   |   |   |   |   conf_congreso = No answer: democrat (0.0)
|   |   |   |   year_encuesta = '(1997-2001]'
|   |   |   |   |   conf_religion_organizada = A great deal
|   |   |   |   |   |   conf_television = Hardly any: republican (2.0/1.0)
|   |   |   |   |   |   conf_television = Only some: democrat (7.0/1.0)
|   |   |   |   |   |   conf_television = A great deal: republican (1.0)
|   |   |   |   |   |   conf_television = No answer: democrat (0.0)
|   |   |   |   |   |   conf_television = Don't know: democrat (0.0)
|   |   |   |   |   conf_religion_organizada = Only some: democrat (19.0/7.0)
|   |   |   |   |   conf_religion_organizada = Hardly any
|   |   |   |   |   |   conf_educacion = Only some
|   |   |   |   |   |   |   conf_cientificos = A great deal: democrat (2.0)
|   |   |   |   |   |   |   conf_cientificos = Only some: Independent (5.0/1.0)
|   |   |   |   |   |   |   conf_cientificos = Don't know: Independent (0.0)
|   |   |   |   |   |   |   conf_cientificos = No answer: Independent (0.0)
|   |   |   |   |   |   |   conf_cientificos = Hardly any: democrat (1.0)
|   |   |   |   |   |   conf_educacion = A great deal: Other party (1.0)
|   |   |   |   |   |   conf_educacion = Hardly any: Independent (2.0/1.0)
|   |   |   |   |   |   conf_educacion = Don't know: Independent (0.0)
|   |   |   |   |   |   conf_educacion = No answer: Independent (0.0)
|   |   |   |   |   conf_religion_organizada = Don't know: democrat (0.0)
|   |   |   |   |   conf_religion_organizada = No answer: democrat (0.0)
|   |   |   |   year_encuesta = '(2001-2007]': democrat (43.0/11.0)
|   |   |   |   year_encuesta = '(2007-2013]'
|   |   |   |   |   conf_religion_organizada = A great deal
|   |   |   |   |   |   balota = Ballot b: Independent (2.0)
|   |   |   |   |   |   balota = Ballot c: democrat (4.0)
|   |   |   |   |   conf_religion_organizada = Only some: democrat (18.0/3.0)
|   |   |   |   |   conf_religion_organizada = Hardly any
|   |   |   |   |   |   conf_gobierno_federal = Hardly any: Independent (6.0/1.0)
|   |   |   |   |   |   conf_gobierno_federal = Only some: democrat (4.0/1.0)
|   |   |   |   |   |   conf_gobierno_federal = A great deal: Independent (0.0)
|   |   |   |   |   |   conf_gobierno_federal = No answer: Independent (0.0)
|   |   |   |   |   |   conf_gobierno_federal = Don't know: Independent (0.0)
|   |   |   |   |   conf_religion_organizada = Don't know: democrat (0.0)
|   |   |   |   |   conf_religion_organizada = No answer: democrat (0.0)
|   |   |   |   year_encuesta = '(2013-inf)'
|   |   |   |   |   conf_gobierno_federal = Hardly any: republican (4.0/2.0)
|   |   |   |   |   conf_gobierno_federal = Only some
|   |   |   |   |   |   conf_television = Hardly any: democrat (4.0/2.0)
|   |   |   |   |   |   conf_television = Only some: Independent (3.0)
|   |   |   |   |   |   conf_television = A great deal: democrat (1.0)
|   |   |   |   |   |   conf_television = No answer: Independent (0.0)
|   |   |   |   |   |   conf_television = Don't know: Independent (0.0)
|   |   |   |   |   conf_gobierno_federal = A great deal: Independent (0.0)
|   |   |   |   |   conf_gobierno_federal = No answer: Independent (0.0)
|   |   |   |   |   conf_gobierno_federal = Don't know: Independent (0.0)
|   |   |   conf_ejercito = No answer: Independent (4.0/2.0)
|   |   |   conf_ejercito = Only some
|   |   |   |   year_encuesta = '(-inf-1992]'
|   |   |   |   |   conf_gobierno_federal = Hardly any
|   |   |   |   |   |   conf_bancos = A great deal: republican (7.0/3.0)
|   |   |   |   |   |   conf_bancos = Only some
|   |   |   |   |   |   |   conf_cientificos = A great deal
|   |   |   |   |   |   |   |   balota = Ballot b: democrat (13.0/4.0)
|   |   |   |   |   |   |   |   balota = Ballot c: Independent (7.0/2.0)
|   |   |   |   |   |   |   conf_cientificos = Only some: democrat (39.0/11.0)
|   |   |   |   |   |   |   conf_cientificos = Don't know: democrat (0.0)
|   |   |   |   |   |   |   conf_cientificos = No answer: democrat (0.0)
|   |   |   |   |   |   |   conf_cientificos = Hardly any: democrat (4.0)
|   |   |   |   |   |   conf_bancos = Hardly any
|   |   |   |   |   |   |   conf_educacion = Only some
|   |   |   |   |   |   |   |   conf_religion_organizada = A great deal: democrat (0.0)
|   |   |   |   |   |   |   |   conf_religion_organizada = Only some: democrat (9.0/1.0)
|   |   |   |   |   |   |   |   conf_religion_organizada = Hardly any: republican (8.0/3.0)
|   |   |   |   |   |   |   |   conf_religion_organizada = Don't know: democrat (0.0)
|   |   |   |   |   |   |   |   conf_religion_organizada = No answer: democrat (0.0)
|   |   |   |   |   |   |   conf_educacion = A great deal: democrat (2.0)
|   |   |   |   |   |   |   conf_educacion = Hardly any: republican (2.0)
|   |   |   |   |   |   |   conf_educacion = Don't know: democrat (0.0)
|   |   |   |   |   |   |   conf_educacion = No answer: democrat (0.0)
|   |   |   |   |   |   conf_bancos = Don't know: democrat (0.0)
|   |   |   |   |   |   conf_bancos = No answer: democrat (0.0)
|   |   |   |   |   conf_gobierno_federal = Only some
|   |   |   |   |   |   conf_congreso = Only some
|   |   |   |   |   |   |   conf_bancos = A great deal: democrat (27.0/12.0)
|   |   |   |   |   |   |   conf_bancos = Only some
|   |   |   |   |   |   |   |   conf_religion_organizada = A great deal
|   |   |   |   |   |   |   |   |   conf_cientificos = A great deal: republican (5.0/2.0)
|   |   |   |   |   |   |   |   |   conf_cientificos = Only some
|   |   |   |   |   |   |   |   |   |   conf_educacion = Only some
|   |   |   |   |   |   |   |   |   |   |   balota = Ballot b: democrat (4.0/1.0)
|   |   |   |   |   |   |   |   |   |   |   balota = Ballot c: republican (5.0/2.0)
|   |   |   |   |   |   |   |   |   |   conf_educacion = A great deal
|   |   |   |   |   |   |   |   |   |   |   balota = Ballot b: republican (2.0)
|   |   |   |   |   |   |   |   |   |   |   balota = Ballot c: democrat (5.0/1.0)
|   |   |   |   |   |   |   |   |   |   conf_educacion = Hardly any: democrat (0.0)
|   |   |   |   |   |   |   |   |   |   conf_educacion = Don't know: democrat (0.0)
|   |   |   |   |   |   |   |   |   |   conf_educacion = No answer: democrat (0.0)
|   |   |   |   |   |   |   |   |   conf_cientificos = Don't know: republican (1.0)
|   |   |   |   |   |   |   |   |   conf_cientificos = No answer: republican (0.0)
|   |   |   |   |   |   |   |   |   conf_cientificos = Hardly any: democrat (1.0)
|   |   |   |   |   |   |   |   conf_religion_organizada = Only some: democrat (150.0/63.0)
|   |   |   |   |   |   |   |   conf_religion_organizada = Hardly any
|   |   |   |   |   |   |   |   |   conf_cientificos = A great deal: republican (10.0/2.0)
|   |   |   |   |   |   |   |   |   conf_cientificos = Only some: democrat (25.0/12.0)
|   |   |   |   |   |   |   |   |   conf_cientificos = Don't know: democrat (1.0)
|   |   |   |   |   |   |   |   |   conf_cientificos = No answer: democrat (0.0)
|   |   |   |   |   |   |   |   |   conf_cientificos = Hardly any: democrat (2.0)
|   |   |   |   |   |   |   |   conf_religion_organizada = Don't know: republican (1.0)
|   |   |   |   |   |   |   |   conf_religion_organizada = No answer: Independent (1.0)
|   |   |   |   |   |   |   conf_bancos = Hardly any
|   |   |   |   |   |   |   |   conf_religion_organizada = A great deal
|   |   |   |   |   |   |   |   |   balota = Ballot b: republican (7.0/3.0)
|   |   |   |   |   |   |   |   |   balota = Ballot c: democrat (3.0/1.0)
|   |   |   |   |   |   |   |   conf_religion_organizada = Only some
|   |   |   |   |   |   |   |   |   conf_educacion = Only some: Independent (10.0/5.0)
|   |   |   |   |   |   |   |   |   conf_educacion = A great deal: democrat (2.0)
|   |   |   |   |   |   |   |   |   conf_educacion = Hardly any: democrat (1.0)
|   |   |   |   |   |   |   |   |   conf_educacion = Don't know: Independent (0.0)
|   |   |   |   |   |   |   |   |   conf_educacion = No answer: Independent (0.0)
|   |   |   |   |   |   |   |   conf_religion_organizada = Hardly any: republican (11.0/3.0)
|   |   |   |   |   |   |   |   conf_religion_organizada = Don't know: republican (0.0)
|   |   |   |   |   |   |   |   conf_religion_organizada = No answer: republican (0.0)
|   |   |   |   |   |   |   conf_bancos = Don't know: democrat (1.0)
|   |   |   |   |   |   |   conf_bancos = No answer: democrat (0.0)
|   |   |   |   |   |   conf_congreso = A great deal: democrat (15.0/5.0)
|   |   |   |   |   |   conf_congreso = Hardly any: republican (30.0/11.0)
|   |   |   |   |   |   conf_congreso = Don't know: democrat (2.0/1.0)
|   |   |   |   |   |   conf_congreso = No answer: democrat (1.0)
|   |   |   |   |   conf_gobierno_federal = A great deal
|   |   |   |   |   |   conf_cientificos = A great deal: republican (19.0/3.0)
|   |   |   |   |   |   conf_cientificos = Only some
|   |   |   |   |   |   |   conf_bancos = A great deal: republican (3.0/1.0)
|   |   |   |   |   |   |   conf_bancos = Only some
|   |   |   |   |   |   |   |   conf_television = Hardly any: democrat (3.0)
|   |   |   |   |   |   |   |   conf_television = Only some
|   |   |   |   |   |   |   |   |   conf_congreso = Only some: republican (11.0/3.0)
|   |   |   |   |   |   |   |   |   conf_congreso = A great deal: democrat (3.0/1.0)
|   |   |   |   |   |   |   |   |   conf_congreso = Hardly any: republican (0.0)
|   |   |   |   |   |   |   |   |   conf_congreso = Don't know: republican (0.0)
|   |   |   |   |   |   |   |   |   conf_congreso = No answer: republican (0.0)
|   |   |   |   |   |   |   |   conf_television = A great deal: democrat (3.0/1.0)
|   |   |   |   |   |   |   |   conf_television = No answer: democrat (0.0)
|   |   |   |   |   |   |   |   conf_television = Don't know: democrat (0.0)
|   |   |   |   |   |   |   conf_bancos = Hardly any: republican (3.0)
|   |   |   |   |   |   |   conf_bancos = Don't know: republican (0.0)
|   |   |   |   |   |   |   conf_bancos = No answer: republican (0.0)
|   |   |   |   |   |   conf_cientificos = Don't know: democrat (4.0/1.0)
|   |   |   |   |   |   conf_cientificos = No answer: democrat (1.0)
|   |   |   |   |   |   conf_cientificos = Hardly any: Independent (2.0/1.0)
|   |   |   |   |   conf_gobierno_federal = No answer: democrat (0.0)
|   |   |   |   |   conf_gobierno_federal = Don't know: republican (6.0/3.0)
|   |   |   |   year_encuesta = '(1992-1997]'
|   |   |   |   |   conf_gobierno_federal = Hardly any
|   |   |   |   |   |   conf_cientificos = A great deal: republican (32.0/14.0)
|   |   |   |   |   |   conf_cientificos = Only some
|   |   |   |   |   |   |   conf_bancos = A great deal: democrat (9.0/3.0)
|   |   |   |   |   |   |   conf_bancos = Only some: republican (66.0/31.0)
|   |   |   |   |   |   |   conf_bancos = Hardly any: democrat (20.0/6.0)
|   |   |   |   |   |   |   conf_bancos = Don't know: republican (0.0)
|   |   |   |   |   |   |   conf_bancos = No answer: republican (0.0)
|   |   |   |   |   |   conf_cientificos = Don't know: republican (6.0)
|   |   |   |   |   |   conf_cientificos = No answer: republican (1.0)
|   |   |   |   |   |   conf_cientificos = Hardly any
|   |   |   |   |   |   |   conf_bancos = A great deal: republican (3.0/1.0)
|   |   |   |   |   |   |   conf_bancos = Only some: democrat (10.0/3.0)
|   |   |   |   |   |   |   conf_bancos = Hardly any: republican (6.0/2.0)
|   |   |   |   |   |   |   conf_bancos = Don't know: democrat (0.0)
|   |   |   |   |   |   |   conf_bancos = No answer: democrat (0.0)
|   |   |   |   |   conf_gobierno_federal = Only some
|   |   |   |   |   |   conf_religion_organizada = A great deal
|   |   |   |   |   |   |   conf_educacion = Only some: democrat (35.0/9.0)
|   |   |   |   |   |   |   conf_educacion = A great deal
|   |   |   |   |   |   |   |   conf_television = Hardly any: republican (4.0/1.0)
|   |   |   |   |   |   |   |   conf_television = Only some
|   |   |   |   |   |   |   |   |   conf_cientificos = A great deal: republican (10.0/4.0)
|   |   |   |   |   |   |   |   |   conf_cientificos = Only some: democrat (9.0/3.0)
|   |   |   |   |   |   |   |   |   conf_cientificos = Don't know: Independent (1.0)
|   |   |   |   |   |   |   |   |   conf_cientificos = No answer: democrat (0.0)
|   |   |   |   |   |   |   |   |   conf_cientificos = Hardly any: democrat (0.0)
|   |   |   |   |   |   |   |   conf_television = A great deal: republican (0.0)
|   |   |   |   |   |   |   |   conf_television = No answer: republican (0.0)
|   |   |   |   |   |   |   |   conf_television = Don't know: republican (0.0)
|   |   |   |   |   |   |   conf_educacion = Hardly any: republican (3.0)
|   |   |   |   |   |   |   conf_educacion = Don't know: democrat (0.0)
|   |   |   |   |   |   |   conf_educacion = No answer: democrat (0.0)
|   |   |   |   |   |   conf_religion_organizada = Only some: democrat (195.0/94.0)
|   |   |   |   |   |   conf_religion_organizada = Hardly any
|   |   |   |   |   |   |   conf_television = Hardly any: democrat (14.0/6.0)
|   |   |   |   |   |   |   conf_television = Only some
|   |   |   |   |   |   |   |   conf_educacion = Only some: democrat (16.0/6.0)
|   |   |   |   |   |   |   |   conf_educacion = A great deal: republican (6.0/1.0)
|   |   |   |   |   |   |   |   conf_educacion = Hardly any: democrat (2.0/1.0)
|   |   |   |   |   |   |   |   conf_educacion = Don't know: democrat (0.0)
|   |   |   |   |   |   |   |   conf_educacion = No answer: democrat (0.0)
|   |   |   |   |   |   |   conf_television = A great deal: republican (4.0/1.0)
|   |   |   |   |   |   |   conf_television = No answer: democrat (0.0)
|   |   |   |   |   |   |   conf_television = Don't know: democrat (0.0)
|   |   |   |   |   |   conf_religion_organizada = Don't know: democrat (7.0/2.0)
|   |   |   |   |   |   conf_religion_organizada = No answer: democrat (0.0)
|   |   |   |   |   conf_gobierno_federal = A great deal: democrat (29.0/3.0)
|   |   |   |   |   conf_gobierno_federal = No answer: democrat (1.0)
|   |   |   |   |   conf_gobierno_federal = Don't know: Independent (5.0/3.0)
|   |   |   |   year_encuesta = '(1997-2001]'
|   |   |   |   |   conf_gobierno_federal = Hardly any: republican (101.0/48.0)
|   |   |   |   |   conf_gobierno_federal = Only some: democrat (199.0/93.0)
|   |   |   |   |   conf_gobierno_federal = A great deal: democrat (16.0/2.0)
|   |   |   |   |   conf_gobierno_federal = No answer: democrat (0.0)
|   |   |   |   |   conf_gobierno_federal = Don't know: democrat (6.0/3.0)
|   |   |   |   year_encuesta = '(2001-2007]'
|   |   |   |   |   conf_gobierno_federal = Hardly any: democrat (89.0/22.0)
|   |   |   |   |   conf_gobierno_federal = Only some
|   |   |   |   |   |   conf_television = Hardly any
|   |   |   |   |   |   |   conf_educacion = Only some: republican (25.0/12.0)
|   |   |   |   |   |   |   conf_educacion = A great deal
|   |   |   |   |   |   |   |   conf_bancos = A great deal: Independent (3.0/1.0)
|   |   |   |   |   |   |   |   conf_bancos = Only some: democrat (6.0/3.0)
|   |   |   |   |   |   |   |   conf_bancos = Hardly any: Independent (2.0/1.0)
|   |   |   |   |   |   |   |   conf_bancos = Don't know: republican (0.0)
|   |   |   |   |   |   |   |   conf_bancos = No answer: republican (0.0)
|   |   |   |   |   |   |   conf_educacion = Hardly any: democrat (3.0/1.0)
|   |   |   |   |   |   |   conf_educacion = Don't know: republican (0.0)
|   |   |   |   |   |   |   conf_educacion = No answer: republican (0.0)
|   |   |   |   |   |   conf_television = Only some: democrat (92.0/40.0)
|   |   |   |   |   |   conf_television = A great deal: Independent (11.0/7.0)
|   |   |   |   |   |   conf_television = No answer: democrat (0.0)
|   |   |   |   |   |   conf_television = Don't know: republican (2.0)
|   |   |   |   |   conf_gobierno_federal = A great deal
|   |   |   |   |   |   conf_bancos = A great deal: democrat (2.0)
|   |   |   |   |   |   conf_bancos = Only some: republican (8.0/3.0)
|   |   |   |   |   |   conf_bancos = Hardly any: democrat (0.0)
|   |   |   |   |   |   conf_bancos = Don't know: democrat (1.0)
|   |   |   |   |   |   conf_bancos = No answer: democrat (0.0)
|   |   |   |   |   conf_gobierno_federal = No answer: democrat (0.0)
|   |   |   |   |   conf_gobierno_federal = Don't know: republican (4.0/1.0)
|   |   |   |   year_encuesta = '(2007-2013]': democrat (240.0/107.0)
|   |   |   |   year_encuesta = '(2013-inf)'
|   |   |   |   |   conf_gobierno_federal = Hardly any
|   |   |   |   |   |   conf_congreso = Only some
|   |   |   |   |   |   |   balota = Ballot b: republican (9.0/2.0)
|   |   |   |   |   |   |   balota = Ballot c: democrat (6.0/1.0)
|   |   |   |   |   |   conf_congreso = A great deal: republican (0.0)
|   |   |   |   |   |   conf_congreso = Hardly any: republican (47.0/23.0)
|   |   |   |   |   |   conf_congreso = Don't know: republican (0.0)
|   |   |   |   |   |   conf_congreso = No answer: republican (0.0)
|   |   |   |   |   conf_gobierno_federal = Only some: democrat (121.0/53.0)
|   |   |   |   |   conf_gobierno_federal = A great deal: democrat (10.0/1.0)
|   |   |   |   |   conf_gobierno_federal = No answer: democrat (0.0)
|   |   |   |   |   conf_gobierno_federal = Don't know: democrat (0.0)
|   |   conf_prensa = Hardly any
|   |   |   conf_ejercito = A great deal
|   |   |   |   conf_television = Hardly any
|   |   |   |   |   conf_bancos = A great deal
|   |   |   |   |   |   year_encuesta = '(-inf-1992]'
|   |   |   |   |   |   |   conf_congreso = Only some
|   |   |   |   |   |   |   |   conf_religion_organizada = A great deal: democrat (1.0)
|   |   |   |   |   |   |   |   conf_religion_organizada = Only some: republican (2.0)
|   |   |   |   |   |   |   |   conf_religion_organizada = Hardly any: democrat (4.0)
|   |   |   |   |   |   |   |   conf_religion_organizada = Don't know: democrat (0.0)
|   |   |   |   |   |   |   |   conf_religion_organizada = No answer: democrat (0.0)
|   |   |   |   |   |   |   conf_congreso = A great deal: republican (1.0)
|   |   |   |   |   |   |   conf_congreso = Hardly any: republican (2.0)
|   |   |   |   |   |   |   conf_congreso = Don't know: democrat (0.0)
|   |   |   |   |   |   |   conf_congreso = No answer: democrat (0.0)
|   |   |   |   |   |   year_encuesta = '(1992-1997]'
|   |   |   |   |   |   |   conf_cientificos = A great deal: democrat (12.0/3.0)
|   |   |   |   |   |   |   conf_cientificos = Only some
|   |   |   |   |   |   |   |   conf_gobierno_federal = Hardly any: republican (5.0/1.0)
|   |   |   |   |   |   |   |   conf_gobierno_federal = Only some: democrat (4.0/2.0)
|   |   |   |   |   |   |   |   conf_gobierno_federal = A great deal: republican (0.0)
|   |   |   |   |   |   |   |   conf_gobierno_federal = No answer: republican (0.0)
|   |   |   |   |   |   |   |   conf_gobierno_federal = Don't know: republican (0.0)
|   |   |   |   |   |   |   conf_cientificos = Don't know: democrat (0.0)
|   |   |   |   |   |   |   conf_cientificos = No answer: democrat (0.0)
|   |   |   |   |   |   |   conf_cientificos = Hardly any: democrat (0.0)
|   |   |   |   |   |   year_encuesta = '(1997-2001]'
|   |   |   |   |   |   |   conf_cientificos = A great deal: republican (12.0/4.0)
|   |   |   |   |   |   |   conf_cientificos = Only some: democrat (9.0/3.0)
|   |   |   |   |   |   |   conf_cientificos = Don't know: republican (1.0)
|   |   |   |   |   |   |   conf_cientificos = No answer: republican (0.0)
|   |   |   |   |   |   |   conf_cientificos = Hardly any: republican (0.0)
|   |   |   |   |   |   year_encuesta = '(2001-2007]': republican (39.0/7.0)
|   |   |   |   |   |   year_encuesta = '(2007-2013]'
|   |   |   |   |   |   |   conf_religion_organizada = A great deal: republican (9.0)
|   |   |   |   |   |   |   conf_religion_organizada = Only some
|   |   |   |   |   |   |   |   conf_educacion = Only some: republican (5.0/1.0)
|   |   |   |   |   |   |   |   conf_educacion = A great deal: democrat (3.0)
|   |   |   |   |   |   |   |   conf_educacion = Hardly any: democrat (1.0)
|   |   |   |   |   |   |   |   conf_educacion = Don't know: democrat (0.0)
|   |   |   |   |   |   |   |   conf_educacion = No answer: democrat (0.0)
|   |   |   |   |   |   |   conf_religion_organizada = Hardly any: republican (2.0)
|   |   |   |   |   |   |   conf_religion_organizada = Don't know: republican (0.0)
|   |   |   |   |   |   |   conf_religion_organizada = No answer: republican (0.0)
|   |   |   |   |   |   year_encuesta = '(2013-inf)'
|   |   |   |   |   |   |   balota = Ballot b
|   |   |   |   |   |   |   |   conf_religion_organizada = A great deal: republican (2.0)
|   |   |   |   |   |   |   |   conf_religion_organizada = Only some: Independent (2.0/1.0)
|   |   |   |   |   |   |   |   conf_religion_organizada = Hardly any
|   |   |   |   |   |   |   |   |   conf_gobierno_federal = Hardly any: democrat (2.0/1.0)
|   |   |   |   |   |   |   |   |   conf_gobierno_federal = Only some: Independent (2.0)
|   |   |   |   |   |   |   |   |   conf_gobierno_federal = A great deal: Independent (0.0)
|   |   |   |   |   |   |   |   |   conf_gobierno_federal = No answer: Independent (0.0)
|   |   |   |   |   |   |   |   |   conf_gobierno_federal = Don't know: Independent (0.0)
|   |   |   |   |   |   |   |   conf_religion_organizada = Don't know: Independent (0.0)
|   |   |   |   |   |   |   |   conf_religion_organizada = No answer: Independent (0.0)
|   |   |   |   |   |   |   balota = Ballot c: democrat (6.0/2.0)
|   |   |   |   |   conf_bancos = Only some: republican (445.0/167.0)
|   |   |   |   |   conf_bancos = Hardly any
|   |   |   |   |   |   conf_congreso = Only some
|   |   |   |   |   |   |   conf_gobierno_federal = Hardly any
|   |   |   |   |   |   |   |   conf_educacion = Only some: democrat (13.0/5.0)
|   |   |   |   |   |   |   |   conf_educacion = A great deal: republican (2.0)
|   |   |   |   |   |   |   |   conf_educacion = Hardly any: republican (6.0/1.0)
|   |   |   |   |   |   |   |   conf_educacion = Don't know: democrat (0.0)
|   |   |   |   |   |   |   |   conf_educacion = No answer: democrat (0.0)
|   |   |   |   |   |   |   conf_gobierno_federal = Only some
|   |   |   |   |   |   |   |   conf_religion_organizada = A great deal: democrat (9.0/4.0)
|   |   |   |   |   |   |   |   conf_religion_organizada = Only some
|   |   |   |   |   |   |   |   |   year_encuesta = '(-inf-1992]': republican (2.0)
|   |   |   |   |   |   |   |   |   year_encuesta = '(1992-1997]': democrat (3.0/1.0)
|   |   |   |   |   |   |   |   |   year_encuesta = '(1997-2001]': Independent (2.0/1.0)
|   |   |   |   |   |   |   |   |   year_encuesta = '(2001-2007]': Independent (3.0/1.0)
|   |   |   |   |   |   |   |   |   year_encuesta = '(2007-2013]': Independent (2.0)
|   |   |   |   |   |   |   |   |   year_encuesta = '(2013-inf)': democrat (2.0)
|   |   |   |   |   |   |   |   conf_religion_organizada = Hardly any
|   |   |   |   |   |   |   |   |   conf_educacion = Only some: Independent (2.0)
|   |   |   |   |   |   |   |   |   conf_educacion = A great deal: Independent (0.0)
|   |   |   |   |   |   |   |   |   conf_educacion = Hardly any: democrat (2.0/1.0)
|   |   |   |   |   |   |   |   |   conf_educacion = Don't know: Independent (0.0)
|   |   |   |   |   |   |   |   |   conf_educacion = No answer: Independent (0.0)
|   |   |   |   |   |   |   |   conf_religion_organizada = Don't know: democrat (1.0)
|   |   |   |   |   |   |   |   conf_religion_organizada = No answer: democrat (0.0)
|   |   |   |   |   |   |   conf_gobierno_federal = A great deal
|   |   |   |   |   |   |   |   year_encuesta = '(-inf-1992]': republican (3.0/1.0)
|   |   |   |   |   |   |   |   year_encuesta = '(1992-1997]': democrat (1.0)
|   |   |   |   |   |   |   |   year_encuesta = '(1997-2001]': democrat (0.0)
|   |   |   |   |   |   |   |   year_encuesta = '(2001-2007]': republican (1.0)
|   |   |   |   |   |   |   |   year_encuesta = '(2007-2013]': democrat (2.0/1.0)
|   |   |   |   |   |   |   |   year_encuesta = '(2013-inf)': democrat (1.0)
|   |   |   |   |   |   |   conf_gobierno_federal = No answer: Independent (2.0/1.0)
|   |   |   |   |   |   |   conf_gobierno_federal = Don't know: democrat (0.0)
|   |   |   |   |   |   conf_congreso = A great deal: democrat (10.0/2.0)
|   |   |   |   |   |   conf_congreso = Hardly any
|   |   |   |   |   |   |   conf_educacion = Only some
|   |   |   |   |   |   |   |   conf_gobierno_federal = Hardly any: republican (37.0/17.0)
|   |   |   |   |   |   |   |   conf_gobierno_federal = Only some
|   |   |   |   |   |   |   |   |   balota = Ballot b: republican (6.0/2.0)
|   |   |   |   |   |   |   |   |   balota = Ballot c: democrat (9.0/4.0)
|   |   |   |   |   |   |   |   conf_gobierno_federal = A great deal
|   |   |   |   |   |   |   |   |   year_encuesta = '(-inf-1992]': republican (3.0)
|   |   |   |   |   |   |   |   |   year_encuesta = '(1992-1997]': democrat (1.0)
|   |   |   |   |   |   |   |   |   year_encuesta = '(1997-2001]': democrat (0.0)
|   |   |   |   |   |   |   |   |   year_encuesta = '(2001-2007]': republican (1.0)
|   |   |   |   |   |   |   |   |   year_encuesta = '(2007-2013]': democrat (1.0)
|   |   |   |   |   |   |   |   |   year_encuesta = '(2013-inf)': democrat (3.0)
|   |   |   |   |   |   |   |   conf_gobierno_federal = No answer: republican (0.0)
|   |   |   |   |   |   |   |   conf_gobierno_federal = Don't know: republican (0.0)
|   |   |   |   |   |   |   conf_educacion = A great deal: democrat (10.0/2.0)
|   |   |   |   |   |   |   conf_educacion = Hardly any: republican (33.0/12.0)
|   |   |   |   |   |   |   conf_educacion = Don't know: republican (0.0)
|   |   |   |   |   |   |   conf_educacion = No answer: republican (0.0)
|   |   |   |   |   |   conf_congreso = Don't know: republican (1.0)
|   |   |   |   |   |   conf_congreso = No answer: republican (0.0)
|   |   |   |   |   conf_bancos = Don't know: republican (1.0)
|   |   |   |   |   conf_bancos = No answer: republican (0.0)
|   |   |   |   conf_television = Only some
|   |   |   |   |   conf_gobierno_federal = Hardly any
|   |   |   |   |   |   conf_cientificos = A great deal: republican (75.0/31.0)
|   |   |   |   |   |   conf_cientificos = Only some
|   |   |   |   |   |   |   year_encuesta = '(-inf-1992]'
|   |   |   |   |   |   |   |   conf_bancos = A great deal: republican (0.0)
|   |   |   |   |   |   |   |   conf_bancos = Only some: republican (3.0)
|   |   |   |   |   |   |   |   conf_bancos = Hardly any
|   |   |   |   |   |   |   |   |   conf_congreso = Only some: republican (2.0)
|   |   |   |   |   |   |   |   |   conf_congreso = A great deal: Independent (0.0)
|   |   |   |   |   |   |   |   |   conf_congreso = Hardly any: Independent (2.0)
|   |   |   |   |   |   |   |   |   conf_congreso = Don't know: Independent (0.0)
|   |   |   |   |   |   |   |   |   conf_congreso = No answer: Independent (0.0)
|   |   |   |   |   |   |   |   conf_bancos = Don't know: republican (0.0)
|   |   |   |   |   |   |   |   conf_bancos = No answer: republican (0.0)
|   |   |   |   |   |   |   year_encuesta = '(1992-1997]'
|   |   |   |   |   |   |   |   conf_religion_organizada = A great deal: democrat (3.0)
|   |   |   |   |   |   |   |   conf_religion_organizada = Only some
|   |   |   |   |   |   |   |   |   conf_educacion = Only some
|   |   |   |   |   |   |   |   |   |   conf_bancos = A great deal: republican (2.0)
|   |   |   |   |   |   |   |   |   |   conf_bancos = Only some: democrat (6.0/2.0)
|   |   |   |   |   |   |   |   |   |   conf_bancos = Hardly any: democrat (0.0)
|   |   |   |   |   |   |   |   |   |   conf_bancos = Don't know: democrat (0.0)
|   |   |   |   |   |   |   |   |   |   conf_bancos = No answer: democrat (0.0)
|   |   |   |   |   |   |   |   |   conf_educacion = A great deal: Independent (1.0)
|   |   |   |   |   |   |   |   |   conf_educacion = Hardly any: republican (4.0)
|   |   |   |   |   |   |   |   |   conf_educacion = Don't know: republican (0.0)
|   |   |   |   |   |   |   |   |   conf_educacion = No answer: republican (0.0)
|   |   |   |   |   |   |   |   conf_religion_organizada = Hardly any: republican (4.0/1.0)
|   |   |   |   |   |   |   |   conf_religion_organizada = Don't know: Independent (1.0)
|   |   |   |   |   |   |   |   conf_religion_organizada = No answer: republican (0.0)
|   |   |   |   |   |   |   year_encuesta = '(1997-2001]'
|   |   |   |   |   |   |   |   conf_educacion = Only some: republican (10.0/3.0)
|   |   |   |   |   |   |   |   conf_educacion = A great deal: republican (0.0)
|   |   |   |   |   |   |   |   conf_educacion = Hardly any: Independent (3.0/1.0)
|   |   |   |   |   |   |   |   conf_educacion = Don't know: republican (0.0)
|   |   |   |   |   |   |   |   conf_educacion = No answer: republican (0.0)
|   |   |   |   |   |   |   year_encuesta = '(2001-2007]'
|   |   |   |   |   |   |   |   conf_bancos = A great deal: democrat (5.0)
|   |   |   |   |   |   |   |   conf_bancos = Only some: democrat (6.0/3.0)
|   |   |   |   |   |   |   |   conf_bancos = Hardly any: Independent (2.0)
|   |   |   |   |   |   |   |   conf_bancos = Don't know: democrat (0.0)
|   |   |   |   |   |   |   |   conf_bancos = No answer: democrat (0.0)
|   |   |   |   |   |   |   year_encuesta = '(2007-2013]'
|   |   |   |   |   |   |   |   conf_educacion = Only some: republican (19.0/8.0)
|   |   |   |   |   |   |   |   conf_educacion = A great deal: republican (1.0)
|   |   |   |   |   |   |   |   conf_educacion = Hardly any: democrat (2.0)
|   |   |   |   |   |   |   |   conf_educacion = Don't know: republican (0.0)
|   |   |   |   |   |   |   |   conf_educacion = No answer: republican (0.0)
|   |   |   |   |   |   |   year_encuesta = '(2013-inf)': republican (30.0/7.0)
|   |   |   |   |   |   conf_cientificos = Don't know
|   |   |   |   |   |   |   year_encuesta = '(-inf-1992]': democrat (0.0)
|   |   |   |   |   |   |   year_encuesta = '(1992-1997]': democrat (0.0)
|   |   |   |   |   |   |   year_encuesta = '(1997-2001]': democrat (3.0)
|   |   |   |   |   |   |   year_encuesta = '(2001-2007]': democrat (3.0)
|   |   |   |   |   |   |   year_encuesta = '(2007-2013]': republican (3.0)
|   |   |   |   |   |   |   year_encuesta = '(2013-inf)': democrat (2.0)
|   |   |   |   |   |   conf_cientificos = No answer: republican (0.0)
|   |   |   |   |   |   conf_cientificos = Hardly any
|   |   |   |   |   |   |   conf_bancos = A great deal: republican (2.0)
|   |   |   |   |   |   |   conf_bancos = Only some: republican (12.0/3.0)
|   |   |   |   |   |   |   conf_bancos = Hardly any: democrat (4.0)
|   |   |   |   |   |   |   conf_bancos = Don't know: republican (0.0)
|   |   |   |   |   |   |   conf_bancos = No answer: republican (0.0)
|   |   |   |   |   conf_gobierno_federal = Only some
|   |   |   |   |   |   balota = Ballot b: democrat (146.0/73.0)
|   |   |   |   |   |   balota = Ballot c
|   |   |   |   |   |   |   conf_congreso = Only some
|   |   |   |   |   |   |   |   year_encuesta = '(-inf-1992]'
|   |   |   |   |   |   |   |   |   conf_religion_organizada = A great deal
|   |   |   |   |   |   |   |   |   |   conf_educacion = Only some: Independent (2.0/1.0)
|   |   |   |   |   |   |   |   |   |   conf_educacion = A great deal: democrat (4.0/1.0)
|   |   |   |   |   |   |   |   |   |   conf_educacion = Hardly any: democrat (0.0)
|   |   |   |   |   |   |   |   |   |   conf_educacion = Don't know: democrat (0.0)
|   |   |   |   |   |   |   |   |   |   conf_educacion = No answer: democrat (0.0)
|   |   |   |   |   |   |   |   |   conf_religion_organizada = Only some: republican (10.0/1.0)
|   |   |   |   |   |   |   |   |   conf_religion_organizada = Hardly any: democrat (3.0/1.0)
|   |   |   |   |   |   |   |   |   conf_religion_organizada = Don't know: republican (0.0)
|   |   |   |   |   |   |   |   |   conf_religion_organizada = No answer: republican (0.0)
|   |   |   |   |   |   |   |   year_encuesta = '(1992-1997]': republican (22.0/7.0)
|   |   |   |   |   |   |   |   year_encuesta = '(1997-2001]'
|   |   |   |   |   |   |   |   |   conf_religion_organizada = A great deal: democrat (7.0/1.0)
|   |   |   |   |   |   |   |   |   conf_religion_organizada = Only some: democrat (7.0/2.0)
|   |   |   |   |   |   |   |   |   conf_religion_organizada = Hardly any: republican (2.0)
|   |   |   |   |   |   |   |   |   conf_religion_organizada = Don't know: democrat (0.0)
|   |   |   |   |   |   |   |   |   conf_religion_organizada = No answer: democrat (0.0)
|   |   |   |   |   |   |   |   year_encuesta = '(2001-2007]'
|   |   |   |   |   |   |   |   |   conf_bancos = A great deal
|   |   |   |   |   |   |   |   |   |   conf_cientificos = A great deal: Independent (3.0/1.0)
|   |   |   |   |   |   |   |   |   |   conf_cientificos = Only some: republican (7.0/2.0)
|   |   |   |   |   |   |   |   |   |   conf_cientificos = Don't know: republican (0.0)
|   |   |   |   |   |   |   |   |   |   conf_cientificos = No answer: republican (0.0)
|   |   |   |   |   |   |   |   |   |   conf_cientificos = Hardly any: republican (0.0)
|   |   |   |   |   |   |   |   |   conf_bancos = Only some: democrat (9.0/3.0)
|   |   |   |   |   |   |   |   |   conf_bancos = Hardly any: Independent (2.0/1.0)
|   |   |   |   |   |   |   |   |   conf_bancos = Don't know: Independent (0.0)
|   |   |   |   |   |   |   |   |   conf_bancos = No answer: Independent (0.0)
|   |   |   |   |   |   |   |   year_encuesta = '(2007-2013]'
|   |   |   |   |   |   |   |   |   conf_educacion = Only some: republican (13.0/5.0)
|   |   |   |   |   |   |   |   |   conf_educacion = A great deal: democrat (9.0/4.0)
|   |   |   |   |   |   |   |   |   conf_educacion = Hardly any: democrat (1.0)
|   |   |   |   |   |   |   |   |   conf_educacion = Don't know: republican (0.0)
|   |   |   |   |   |   |   |   |   conf_educacion = No answer: republican (0.0)
|   |   |   |   |   |   |   |   year_encuesta = '(2013-inf)': republican (10.0/4.0)
|   |   |   |   |   |   |   conf_congreso = A great deal
|   |   |   |   |   |   |   |   conf_religion_organizada = A great deal: Independent (2.0/1.0)
|   |   |   |   |   |   |   |   conf_religion_organizada = Only some: republican (4.0/1.0)
|   |   |   |   |   |   |   |   conf_religion_organizada = Hardly any: Independent (1.0)
|   |   |   |   |   |   |   |   conf_religion_organizada = Don't know: republican (0.0)
|   |   |   |   |   |   |   |   conf_religion_organizada = No answer: republican (0.0)
|   |   |   |   |   |   |   conf_congreso = Hardly any
|   |   |   |   |   |   |   |   year_encuesta = '(-inf-1992]': Independent (3.0/2.0)
|   |   |   |   |   |   |   |   year_encuesta = '(1992-1997]'
|   |   |   |   |   |   |   |   |   conf_religion_organizada = A great deal: democrat (0.0)
|   |   |   |   |   |   |   |   |   conf_religion_organizada = Only some: democrat (3.0/1.0)
|   |   |   |   |   |   |   |   |   conf_religion_organizada = Hardly any: republican (3.0/1.0)
|   |   |   |   |   |   |   |   |   conf_religion_organizada = Don't know: democrat (0.0)
|   |   |   |   |   |   |   |   |   conf_religion_organizada = No answer: democrat (0.0)
|   |   |   |   |   |   |   |   year_encuesta = '(1997-2001]': Independent (3.0/1.0)
|   |   |   |   |   |   |   |   year_encuesta = '(2001-2007]': republican (10.0/3.0)
|   |   |   |   |   |   |   |   year_encuesta = '(2007-2013]': republican (7.0/3.0)
|   |   |   |   |   |   |   |   year_encuesta = '(2013-inf)': democrat (7.0/2.0)
|   |   |   |   |   |   |   conf_congreso = Don't know: Independent (2.0)
|   |   |   |   |   |   |   conf_congreso = No answer: republican (0.0)
|   |   |   |   |   conf_gobierno_federal = A great deal
|   |   |   |   |   |   year_encuesta = '(-inf-1992]'
|   |   |   |   |   |   |   balota = Ballot b: republican (11.0/1.0)
|   |   |   |   |   |   |   balota = Ballot c: democrat (7.0/3.0)
|   |   |   |   |   |   year_encuesta = '(1992-1997]'
|   |   |   |   |   |   |   conf_congreso = Only some: republican (5.0/1.0)
|   |   |   |   |   |   |   conf_congreso = A great deal: democrat (1.0)
|   |   |   |   |   |   |   conf_congreso = Hardly any: democrat (4.0/1.0)
|   |   |   |   |   |   |   conf_congreso = Don't know: democrat (0.0)
|   |   |   |   |   |   |   conf_congreso = No answer: democrat (0.0)
|   |   |   |   |   |   year_encuesta = '(1997-2001]': democrat (8.0/3.0)
|   |   |   |   |   |   year_encuesta = '(2001-2007]': republican (25.0/4.0)
|   |   |   |   |   |   year_encuesta = '(2007-2013]'
|   |   |   |   |   |   |   conf_religion_organizada = A great deal: democrat (4.0)
|   |   |   |   |   |   |   conf_religion_organizada = Only some: Independent (5.0/2.0)
|   |   |   |   |   |   |   conf_religion_organizada = Hardly any: democrat (0.0)
|   |   |   |   |   |   |   conf_religion_organizada = Don't know: democrat (0.0)
|   |   |   |   |   |   |   conf_religion_organizada = No answer: democrat (0.0)
|   |   |   |   |   |   year_encuesta = '(2013-inf)': democrat (6.0/1.0)
|   |   |   |   |   conf_gobierno_federal = No answer: republican (0.0)
|   |   |   |   |   conf_gobierno_federal = Don't know: Independent (5.0/2.0)
|   |   |   |   conf_television = A great deal: democrat (82.0/34.0)
|   |   |   |   conf_television = No answer: republican (0.0)
|   |   |   |   conf_television = Don't know
|   |   |   |   |   year_encuesta = '(-inf-1992]': republican (0.0)
|   |   |   |   |   year_encuesta = '(1992-1997]': republican (3.0)
|   |   |   |   |   year_encuesta = '(1997-2001]': republican (0.0)
|   |   |   |   |   year_encuesta = '(2001-2007]': republican (0.0)
|   |   |   |   |   year_encuesta = '(2007-2013]': Independent (2.0/1.0)
|   |   |   |   |   year_encuesta = '(2013-inf)': Independent (1.0)
|   |   |   conf_ejercito = Don't know
|   |   |   |   conf_television = Hardly any
|   |   |   |   |   year_encuesta = '(-inf-1992]': Independent (3.0/2.0)
|   |   |   |   |   year_encuesta = '(1992-1997]'
|   |   |   |   |   |   conf_religion_organizada = A great deal: democrat (2.0)
|   |   |   |   |   |   conf_religion_organizada = Only some: Independent (2.0)
|   |   |   |   |   |   conf_religion_organizada = Hardly any: Independent (1.0)
|   |   |   |   |   |   conf_religion_organizada = Don't know: republican (1.0)
|   |   |   |   |   |   conf_religion_organizada = No answer: Independent (0.0)
|   |   |   |   |   year_encuesta = '(1997-2001]': republican (8.0/3.0)
|   |   |   |   |   year_encuesta = '(2001-2007]': democrat (3.0)
|   |   |   |   |   year_encuesta = '(2007-2013]': republican (0.0)
|   |   |   |   |   year_encuesta = '(2013-inf)': republican (1.0)
|   |   |   |   conf_television = Only some: democrat (3.0/1.0)
|   |   |   |   conf_television = A great deal: democrat (1.0)
|   |   |   |   conf_television = No answer: democrat (0.0)
|   |   |   |   conf_television = Don't know: Independent (1.0)
|   |   |   conf_ejercito = Hardly any: democrat (286.0/138.0)
|   |   |   conf_ejercito = No answer: No answer (4.0/2.0)
|   |   |   conf_ejercito = Only some
|   |   |   |   conf_television = Hardly any
|   |   |   |   |   conf_gobierno_federal = Hardly any
|   |   |   |   |   |   year_encuesta = '(-inf-1992]': democrat (24.0/11.0)
|   |   |   |   |   |   year_encuesta = '(1992-1997]': republican (134.0/62.0)
|   |   |   |   |   |   year_encuesta = '(1997-2001]': republican (67.0/35.0)
|   |   |   |   |   |   year_encuesta = '(2001-2007]'
|   |   |   |   |   |   |   conf_religion_organizada = A great deal: democrat (5.0/1.0)
|   |   |   |   |   |   |   conf_religion_organizada = Only some: democrat (36.0/15.0)
|   |   |   |   |   |   |   conf_religion_organizada = Hardly any: republican (10.0/4.0)
|   |   |   |   |   |   |   conf_religion_organizada = Don't know: republican (1.0)
|   |   |   |   |   |   |   conf_religion_organizada = No answer: democrat (0.0)
|   |   |   |   |   |   year_encuesta = '(2007-2013]'
|   |   |   |   |   |   |   conf_cientificos = A great deal: Independent (6.0/1.0)
|   |   |   |   |   |   |   conf_cientificos = Only some
|   |   |   |   |   |   |   |   balota = Ballot b
|   |   |   |   |   |   |   |   |   conf_congreso = Only some: democrat (3.0/1.0)
|   |   |   |   |   |   |   |   |   conf_congreso = A great deal: republican (0.0)
|   |   |   |   |   |   |   |   |   conf_congreso = Hardly any
|   |   |   |   |   |   |   |   |   |   conf_bancos = A great deal: republican (0.0)
|   |   |   |   |   |   |   |   |   |   conf_bancos = Only some
|   |   |   |   |   |   |   |   |   |   |   conf_religion_organizada = A great deal: republican (3.0/1.0)
|   |   |   |   |   |   |   |   |   |   |   conf_religion_organizada = Only some: Independent (3.0)
|   |   |   |   |   |   |   |   |   |   |   conf_religion_organizada = Hardly any: Independent (0.0)
|   |   |   |   |   |   |   |   |   |   |   conf_religion_organizada = Don't know: Independent (0.0)
|   |   |   |   |   |   |   |   |   |   |   conf_religion_organizada = No answer: Independent (0.0)
|   |   |   |   |   |   |   |   |   |   conf_bancos = Hardly any: republican (5.0/1.0)
|   |   |   |   |   |   |   |   |   |   conf_bancos = Don't know: republican (0.0)
|   |   |   |   |   |   |   |   |   |   conf_bancos = No answer: republican (0.0)
|   |   |   |   |   |   |   |   |   conf_congreso = Don't know: republican (0.0)
|   |   |   |   |   |   |   |   |   conf_congreso = No answer: republican (0.0)
|   |   |   |   |   |   |   |   balota = Ballot c: republican (18.0/5.0)
|   |   |   |   |   |   |   conf_cientificos = Don't know: republican (0.0)
|   |   |   |   |   |   |   conf_cientificos = No answer: republican (0.0)
|   |   |   |   |   |   |   conf_cientificos = Hardly any
|   |   |   |   |   |   |   |   conf_educacion = Only some: democrat (3.0)
|   |   |   |   |   |   |   |   conf_educacion = A great deal: democrat (0.0)
|   |   |   |   |   |   |   |   conf_educacion = Hardly any: republican (2.0/1.0)
|   |   |   |   |   |   |   |   conf_educacion = Don't know: democrat (0.0)
|   |   |   |   |   |   |   |   conf_educacion = No answer: democrat (0.0)
|   |   |   |   |   |   year_encuesta = '(2013-inf)': republican (98.0/42.0)
|   |   |   |   |   conf_gobierno_federal = Only some
|   |   |   |   |   |   conf_educacion = Only some
|   |   |   |   |   |   |   conf_bancos = A great deal
|   |   |   |   |   |   |   |   conf_religion_organizada = A great deal: democrat (2.0)
|   |   |   |   |   |   |   |   conf_religion_organizada = Only some
|   |   |   |   |   |   |   |   |   year_encuesta = '(-inf-1992]': republican (2.0)
|   |   |   |   |   |   |   |   |   year_encuesta = '(1992-1997]': democrat (1.0)
|   |   |   |   |   |   |   |   |   year_encuesta = '(1997-2001]': republican (5.0/1.0)
|   |   |   |   |   |   |   |   |   year_encuesta = '(2001-2007]': republican (2.0)
|   |   |   |   |   |   |   |   |   year_encuesta = '(2007-2013]': democrat (3.0)
|   |   |   |   |   |   |   |   |   year_encuesta = '(2013-inf)': republican (0.0)
|   |   |   |   |   |   |   |   conf_religion_organizada = Hardly any: republican (1.0)
|   |   |   |   |   |   |   |   conf_religion_organizada = Don't know: republican (0.0)
|   |   |   |   |   |   |   |   conf_religion_organizada = No answer: republican (0.0)
|   |   |   |   |   |   |   conf_bancos = Only some: republican (177.0/84.0)
|   |   |   |   |   |   |   conf_bancos = Hardly any
|   |   |   |   |   |   |   |   year_encuesta = '(-inf-1992]'
|   |   |   |   |   |   |   |   |   balota = Ballot b: republican (6.0/1.0)
|   |   |   |   |   |   |   |   |   balota = Ballot c: democrat (8.0/3.0)
|   |   |   |   |   |   |   |   year_encuesta = '(1992-1997]': democrat (16.0/8.0)
|   |   |   |   |   |   |   |   year_encuesta = '(1997-2001]': Independent (7.0/4.0)
|   |   |   |   |   |   |   |   year_encuesta = '(2001-2007]': Independent (4.0/2.0)
|   |   |   |   |   |   |   |   year_encuesta = '(2007-2013]'
|   |   |   |   |   |   |   |   |   conf_congreso = Only some: democrat (7.0/2.0)
|   |   |   |   |   |   |   |   |   conf_congreso = A great deal: democrat (0.0)
|   |   |   |   |   |   |   |   |   conf_congreso = Hardly any: republican (4.0/1.0)
|   |   |   |   |   |   |   |   |   conf_congreso = Don't know: democrat (0.0)
|   |   |   |   |   |   |   |   |   conf_congreso = No answer: democrat (0.0)
|   |   |   |   |   |   |   |   year_encuesta = '(2013-inf)': democrat (7.0/3.0)
|   |   |   |   |   |   |   conf_bancos = Don't know: democrat (1.0)
|   |   |   |   |   |   |   conf_bancos = No answer: republican (0.0)
|   |   |   |   |   |   conf_educacion = A great deal
|   |   |   |   |   |   |   conf_cientificos = A great deal
|   |   |   |   |   |   |   |   conf_congreso = Only some: republican (11.0/5.0)
|   |   |   |   |   |   |   |   conf_congreso = A great deal: republican (0.0)
|   |   |   |   |   |   |   |   conf_congreso = Hardly any: democrat (5.0/2.0)
|   |   |   |   |   |   |   |   conf_congreso = Don't know: Independent (1.0)
|   |   |   |   |   |   |   |   conf_congreso = No answer: republican (0.0)
|   |   |   |   |   |   |   conf_cientificos = Only some
|   |   |   |   |   |   |   |   year_encuesta = '(-inf-1992]': republican (9.0/1.0)
|   |   |   |   |   |   |   |   year_encuesta = '(1992-1997]': democrat (6.0/2.0)
|   |   |   |   |   |   |   |   year_encuesta = '(1997-2001]': democrat (9.0/2.0)
|   |   |   |   |   |   |   |   year_encuesta = '(2001-2007]'
|   |   |   |   |   |   |   |   |   balota = Ballot b: democrat (4.0/2.0)
|   |   |   |   |   |   |   |   |   balota = Ballot c: republican (7.0/2.0)
|   |   |   |   |   |   |   |   year_encuesta = '(2007-2013]': republican (8.0/2.0)
|   |   |   |   |   |   |   |   year_encuesta = '(2013-inf)': democrat (3.0/1.0)
|   |   |   |   |   |   |   conf_cientificos = Don't know: democrat (1.0)
|   |   |   |   |   |   |   conf_cientificos = No answer: republican (0.0)
|   |   |   |   |   |   |   conf_cientificos = Hardly any: democrat (4.0/1.0)
|   |   |   |   |   |   conf_educacion = Hardly any: republican (61.0/28.0)
|   |   |   |   |   |   conf_educacion = Don't know: democrat (2.0)
|   |   |   |   |   |   conf_educacion = No answer: republican (0.0)
|   |   |   |   |   conf_gobierno_federal = A great deal
|   |   |   |   |   |   year_encuesta = '(-inf-1992]': republican (9.0/2.0)
|   |   |   |   |   |   year_encuesta = '(1992-1997]': democrat (8.0/2.0)
|   |   |   |   |   |   year_encuesta = '(1997-2001]': democrat (7.0/1.0)
|   |   |   |   |   |   year_encuesta = '(2001-2007]': republican (8.0)
|   |   |   |   |   |   year_encuesta = '(2007-2013]': democrat (8.0/1.0)
|   |   |   |   |   |   year_encuesta = '(2013-inf)': democrat (7.0/1.0)
|   |   |   |   |   conf_gobierno_federal = No answer: republican (0.0)
|   |   |   |   |   conf_gobierno_federal = Don't know
|   |   |   |   |   |   conf_bancos = A great deal: republican (0.0)
|   |   |   |   |   |   conf_bancos = Only some: republican (2.0)
|   |   |   |   |   |   conf_bancos = Hardly any: Independent (2.0/1.0)
|   |   |   |   |   |   conf_bancos = Don't know: republican (0.0)
|   |   |   |   |   |   conf_bancos = No answer: republican (0.0)
|   |   |   |   conf_television = Only some
|   |   |   |   |   conf_religion_organizada = A great deal
|   |   |   |   |   |   conf_congreso = Only some
|   |   |   |   |   |   |   conf_gobierno_federal = Hardly any: democrat (11.0/3.0)
|   |   |   |   |   |   |   conf_gobierno_federal = Only some
|   |   |   |   |   |   |   |   year_encuesta = '(-inf-1992]'
|   |   |   |   |   |   |   |   |   conf_cientificos = A great deal: democrat (2.0)
|   |   |   |   |   |   |   |   |   conf_cientificos = Only some
|   |   |   |   |   |   |   |   |   |   conf_educacion = Only some: republican (6.0)
|   |   |   |   |   |   |   |   |   |   conf_educacion = A great deal: democrat (2.0)
|   |   |   |   |   |   |   |   |   |   conf_educacion = Hardly any: republican (0.0)
|   |   |   |   |   |   |   |   |   |   conf_educacion = Don't know: republican (0.0)
|   |   |   |   |   |   |   |   |   |   conf_educacion = No answer: republican (0.0)
|   |   |   |   |   |   |   |   |   conf_cientificos = Don't know: republican (0.0)
|   |   |   |   |   |   |   |   |   conf_cientificos = No answer: republican (0.0)
|   |   |   |   |   |   |   |   |   conf_cientificos = Hardly any: republican (0.0)
|   |   |   |   |   |   |   |   year_encuesta = '(1992-1997]': democrat (11.0/3.0)
|   |   |   |   |   |   |   |   year_encuesta = '(1997-2001]': democrat (12.0/3.0)
|   |   |   |   |   |   |   |   year_encuesta = '(2001-2007]'
|   |   |   |   |   |   |   |   |   conf_bancos = A great deal: democrat (0.0)
|   |   |   |   |   |   |   |   |   conf_bancos = Only some: republican (3.0/1.0)
|   |   |   |   |   |   |   |   |   conf_bancos = Hardly any: democrat (2.0)
|   |   |   |   |   |   |   |   |   conf_bancos = Don't know: democrat (0.0)
|   |   |   |   |   |   |   |   |   conf_bancos = No answer: democrat (0.0)
|   |   |   |   |   |   |   |   year_encuesta = '(2007-2013]': republican (6.0/1.0)
|   |   |   |   |   |   |   |   year_encuesta = '(2013-inf)': republican (3.0/1.0)
|   |   |   |   |   |   |   conf_gobierno_federal = A great deal
|   |   |   |   |   |   |   |   balota = Ballot b: republican (2.0)
|   |   |   |   |   |   |   |   balota = Ballot c: democrat (3.0/1.0)
|   |   |   |   |   |   |   conf_gobierno_federal = No answer: democrat (0.0)
|   |   |   |   |   |   |   conf_gobierno_federal = Don't know: democrat (0.0)
|   |   |   |   |   |   conf_congreso = A great deal: democrat (4.0)
|   |   |   |   |   |   conf_congreso = Hardly any
|   |   |   |   |   |   |   balota = Ballot b: republican (18.0/6.0)
|   |   |   |   |   |   |   balota = Ballot c: democrat (23.0/12.0)
|   |   |   |   |   |   conf_congreso = Don't know: democrat (2.0)
|   |   |   |   |   |   conf_congreso = No answer: democrat (0.0)
|   |   |   |   |   conf_religion_organizada = Only some
|   |   |   |   |   |   conf_congreso = Only some: democrat (208.0/91.0)
|   |   |   |   |   |   conf_congreso = A great deal
|   |   |   |   |   |   |   conf_gobierno_federal = Hardly any: republican (4.0/1.0)
|   |   |   |   |   |   |   conf_gobierno_federal = Only some
|   |   |   |   |   |   |   |   balota = Ballot b: republican (2.0)
|   |   |   |   |   |   |   |   balota = Ballot c: democrat (3.0)
|   |   |   |   |   |   |   conf_gobierno_federal = A great deal: democrat (6.0/2.0)
|   |   |   |   |   |   |   conf_gobierno_federal = No answer: democrat (0.0)
|   |   |   |   |   |   |   conf_gobierno_federal = Don't know: democrat (0.0)
|   |   |   |   |   |   conf_congreso = Hardly any
|   |   |   |   |   |   |   conf_educacion = Only some
|   |   |   |   |   |   |   |   conf_bancos = A great deal: democrat (5.0/3.0)
|   |   |   |   |   |   |   |   conf_bancos = Only some
|   |   |   |   |   |   |   |   |   balota = Ballot b: democrat (44.0/20.0)
|   |   |   |   |   |   |   |   |   balota = Ballot c: republican (37.0/17.0)
|   |   |   |   |   |   |   |   conf_bancos = Hardly any: democrat (22.0/10.0)
|   |   |   |   |   |   |   |   conf_bancos = Don't know: republican (1.0)
|   |   |   |   |   |   |   |   conf_bancos = No answer: democrat (0.0)
|   |   |   |   |   |   |   conf_educacion = A great deal: democrat (16.0/8.0)
|   |   |   |   |   |   |   conf_educacion = Hardly any
|   |   |   |   |   |   |   |   conf_bancos = A great deal: republican (4.0)
|   |   |   |   |   |   |   |   conf_bancos = Only some
|   |   |   |   |   |   |   |   |   balota = Ballot b
|   |   |   |   |   |   |   |   |   |   conf_cientificos = A great deal: republican (2.0)
|   |   |   |   |   |   |   |   |   |   conf_cientificos = Only some: Independent (11.0/6.0)
|   |   |   |   |   |   |   |   |   |   conf_cientificos = Don't know: republican (0.0)
|   |   |   |   |   |   |   |   |   |   conf_cientificos = No answer: republican (0.0)
|   |   |   |   |   |   |   |   |   |   conf_cientificos = Hardly any: republican (3.0/1.0)
|   |   |   |   |   |   |   |   |   balota = Ballot c: democrat (10.0/2.0)
|   |   |   |   |   |   |   |   conf_bancos = Hardly any: republican (12.0/2.0)
|   |   |   |   |   |   |   |   conf_bancos = Don't know: republican (0.0)
|   |   |   |   |   |   |   |   conf_bancos = No answer: republican (0.0)
|   |   |   |   |   |   |   conf_educacion = Don't know: republican (1.0)
|   |   |   |   |   |   |   conf_educacion = No answer: republican (0.0)
|   |   |   |   |   |   conf_congreso = Don't know: democrat (2.0/1.0)
|   |   |   |   |   |   conf_congreso = No answer: democrat (0.0)
|   |   |   |   |   conf_religion_organizada = Hardly any
|   |   |   |   |   |   year_encuesta = '(-inf-1992]'
|   |   |   |   |   |   |   conf_bancos = A great deal: democrat (2.0)
|   |   |   |   |   |   |   conf_bancos = Only some
|   |   |   |   |   |   |   |   conf_congreso = Only some
|   |   |   |   |   |   |   |   |   conf_cientificos = A great deal: republican (4.0)
|   |   |   |   |   |   |   |   |   conf_cientificos = Only some: democrat (4.0/1.0)
|   |   |   |   |   |   |   |   |   conf_cientificos = Don't know: democrat (1.0)
|   |   |   |   |   |   |   |   |   conf_cientificos = No answer: republican (0.0)
|   |   |   |   |   |   |   |   |   conf_cientificos = Hardly any: republican (0.0)
|   |   |   |   |   |   |   |   conf_congreso = A great deal: republican (1.0)
|   |   |   |   |   |   |   |   conf_congreso = Hardly any: democrat (3.0)
|   |   |   |   |   |   |   |   conf_congreso = Don't know: democrat (0.0)
|   |   |   |   |   |   |   |   conf_congreso = No answer: democrat (0.0)
|   |   |   |   |   |   |   conf_bancos = Hardly any: Independent (4.0/2.0)
|   |   |   |   |   |   |   conf_bancos = Don't know: democrat (0.0)
|   |   |   |   |   |   |   conf_bancos = No answer: democrat (0.0)
|   |   |   |   |   |   year_encuesta = '(1992-1997]'
|   |   |   |   |   |   |   conf_bancos = A great deal: republican (3.0/1.0)
|   |   |   |   |   |   |   conf_bancos = Only some
|   |   |   |   |   |   |   |   conf_congreso = Only some: Independent (8.0/4.0)
|   |   |   |   |   |   |   |   conf_congreso = A great deal: republican (0.0)
|   |   |   |   |   |   |   |   conf_congreso = Hardly any
|   |   |   |   |   |   |   |   |   balota = Ballot b: democrat (4.0/2.0)
|   |   |   |   |   |   |   |   |   balota = Ballot c: republican (6.0/2.0)
|   |   |   |   |   |   |   |   conf_congreso = Don't know: republican (0.0)
|   |   |   |   |   |   |   |   conf_congreso = No answer: republican (0.0)
|   |   |   |   |   |   |   conf_bancos = Hardly any
|   |   |   |   |   |   |   |   conf_gobierno_federal = Hardly any: republican (6.0/2.0)
|   |   |   |   |   |   |   |   conf_gobierno_federal = Only some: democrat (5.0)
|   |   |   |   |   |   |   |   conf_gobierno_federal = A great deal: democrat (0.0)
|   |   |   |   |   |   |   |   conf_gobierno_federal = No answer: democrat (0.0)
|   |   |   |   |   |   |   |   conf_gobierno_federal = Don't know: democrat (0.0)
|   |   |   |   |   |   |   conf_bancos = Don't know: republican (0.0)
|   |   |   |   |   |   |   conf_bancos = No answer: republican (0.0)
|   |   |   |   |   |   year_encuesta = '(1997-2001]'
|   |   |   |   |   |   |   balota = Ballot b
|   |   |   |   |   |   |   |   conf_bancos = A great deal: republican (2.0)
|   |   |   |   |   |   |   |   conf_bancos = Only some
|   |   |   |   |   |   |   |   |   conf_gobierno_federal = Hardly any: democrat (3.0/1.0)
|   |   |   |   |   |   |   |   |   conf_gobierno_federal = Only some: Independent (3.0/1.0)
|   |   |   |   |   |   |   |   |   conf_gobierno_federal = A great deal: democrat (0.0)
|   |   |   |   |   |   |   |   |   conf_gobierno_federal = No answer: democrat (0.0)
|   |   |   |   |   |   |   |   |   conf_gobierno_federal = Don't know: democrat (0.0)
|   |   |   |   |   |   |   |   conf_bancos = Hardly any: democrat (3.0/1.0)
|   |   |   |   |   |   |   |   conf_bancos = Don't know: democrat (0.0)
|   |   |   |   |   |   |   |   conf_bancos = No answer: democrat (0.0)
|   |   |   |   |   |   |   balota = Ballot c: republican (3.0)
|   |   |   |   |   |   year_encuesta = '(2001-2007]'
|   |   |   |   |   |   |   conf_educacion = Only some: republican (2.0)
|   |   |   |   |   |   |   conf_educacion = A great deal: Independent (2.0)
|   |   |   |   |   |   |   conf_educacion = Hardly any: Independent (0.0)
|   |   |   |   |   |   |   conf_educacion = Don't know: Independent (0.0)
|   |   |   |   |   |   |   conf_educacion = No answer: Independent (0.0)
|   |   |   |   |   |   year_encuesta = '(2007-2013]': democrat (4.0/1.0)
|   |   |   |   |   |   year_encuesta = '(2013-inf)'
|   |   |   |   |   |   |   conf_congreso = Only some
|   |   |   |   |   |   |   |   conf_bancos = A great deal: Independent (1.0)
|   |   |   |   |   |   |   |   conf_bancos = Only some: Independent (4.0/1.0)
|   |   |   |   |   |   |   |   conf_bancos = Hardly any: democrat (3.0/1.0)
|   |   |   |   |   |   |   |   conf_bancos = Don't know: Independent (0.0)
|   |   |   |   |   |   |   |   conf_bancos = No answer: Independent (0.0)
|   |   |   |   |   |   |   conf_congreso = A great deal: democrat (0.0)
|   |   |   |   |   |   |   conf_congreso = Hardly any: democrat (6.0/2.0)
|   |   |   |   |   |   |   conf_congreso = Don't know: democrat (0.0)
|   |   |   |   |   |   |   conf_congreso = No answer: democrat (0.0)
|   |   |   |   |   conf_religion_organizada = Don't know: democrat (6.0/1.0)
|   |   |   |   |   conf_religion_organizada = No answer: Independent (1.0)
|   |   |   |   conf_television = A great deal
|   |   |   |   |   conf_gobierno_federal = Hardly any
|   |   |   |   |   |   conf_cientificos = A great deal: republican (6.0/2.0)
|   |   |   |   |   |   conf_cientificos = Only some: democrat (7.0/3.0)
|   |   |   |   |   |   conf_cientificos = Don't know: republican (1.0)
|   |   |   |   |   |   conf_cientificos = No answer: republican (0.0)
|   |   |   |   |   |   conf_cientificos = Hardly any: Independent (2.0/1.0)
|   |   |   |   |   conf_gobierno_federal = Only some: democrat (18.0/7.0)
|   |   |   |   |   conf_gobierno_federal = A great deal: democrat (1.0)
|   |   |   |   |   conf_gobierno_federal = No answer: democrat (0.0)
|   |   |   |   |   conf_gobierno_federal = Don't know: Independent (2.0)
|   |   |   |   conf_television = No answer: republican (0.0)
|   |   |   |   conf_television = Don't know: democrat (7.0/1.0)
|   |   conf_prensa = Don't know
|   |   |   conf_cientificos = A great deal
|   |   |   |   conf_bancos = A great deal: republican (3.0/1.0)
|   |   |   |   conf_bancos = Only some: democrat (6.0/1.0)
|   |   |   |   conf_bancos = Hardly any: republican (2.0/1.0)
|   |   |   |   conf_bancos = Don't know: democrat (0.0)
|   |   |   |   conf_bancos = No answer: democrat (0.0)
|   |   |   conf_cientificos = Only some
|   |   |   |   conf_gobierno_federal = Hardly any: democrat (2.0/1.0)
|   |   |   |   conf_gobierno_federal = Only some
|   |   |   |   |   conf_ejercito = A great deal: democrat (4.0)
|   |   |   |   |   conf_ejercito = Don't know: republican (2.0)
|   |   |   |   |   conf_ejercito = Hardly any: Independent (1.0)
|   |   |   |   |   conf_ejercito = No answer: democrat (0.0)
|   |   |   |   |   conf_ejercito = Only some
|   |   |   |   |   |   conf_educacion = Only some: Independent (5.0/2.0)
|   |   |   |   |   |   conf_educacion = A great deal: democrat (3.0)
|   |   |   |   |   |   conf_educacion = Hardly any: democrat (0.0)
|   |   |   |   |   |   conf_educacion = Don't know: republican (1.0)
|   |   |   |   |   |   conf_educacion = No answer: democrat (0.0)
|   |   |   |   conf_gobierno_federal = A great deal: republican (5.0/1.0)
|   |   |   |   conf_gobierno_federal = No answer: democrat (0.0)
|   |   |   |   conf_gobierno_federal = Don't know: No answer (1.0)
|   |   |   conf_cientificos = Don't know
|   |   |   |   conf_television = Hardly any: republican (5.0/2.0)
|   |   |   |   conf_television = Only some
|   |   |   |   |   conf_congreso = Only some
|   |   |   |   |   |   conf_religion_organizada = A great deal: Independent (4.0/2.0)
|   |   |   |   |   |   conf_religion_organizada = Only some: democrat (6.0/3.0)
|   |   |   |   |   |   conf_religion_organizada = Hardly any: democrat (0.0)
|   |   |   |   |   |   conf_religion_organizada = Don't know: Independent (1.0)
|   |   |   |   |   |   conf_religion_organizada = No answer: democrat (0.0)
|   |   |   |   |   conf_congreso = A great deal: Independent (2.0/1.0)
|   |   |   |   |   conf_congreso = Hardly any: democrat (4.0)
|   |   |   |   |   conf_congreso = Don't know
|   |   |   |   |   |   year_encuesta = '(-inf-1992]': Independent (3.0/1.0)
|   |   |   |   |   |   year_encuesta = '(1992-1997]'
|   |   |   |   |   |   |   balota = Ballot b: republican (5.0/1.0)
